%YAML:1.0
---
opencv_ml_knn:
   format: 3
   is_classifier: 1
   default_k: 32
   samples: !!opencv-matrix
      rows: 280
      cols: 6
      dt: f
      data: [ 6.61306839e+01, 1.99272957e+01, 5.69829559e+01,
          1.93681545e+01, 5.13352280e+01, 1.93093948e+01, 1.43183823e+02,
          1.42554483e+01, 1.38772064e+02, 1.40158463e+01, 1.23544121e+02,
          1.30229816e+01, 1.53472229e+02, 4.09892769e+01, 1.48490738e+02,
          4.03824005e+01, 1.31601852e+02, 4.08434296e+01, 1.62262070e+02,
          1.64244995e+01, 1.55213791e+02, 1.57410412e+01, 1.39096558e+02,
          1.54844561e+01, 1.83294449e+02, 1.05421190e+01, 1.75377777e+02,
          1.05386524e+01, 1.57794449e+02, 1.02121067e+01, 9.03553009e+01,
          1.90493870e+01, 1.09042976e+02, 1.81722565e+01, 7.36704865e+01,
          1.70685825e+01, 1.93171570e+02, 1.49569159e+01, 1.83039215e+02,
          1.52030087e+01, 1.66421570e+02, 1.50017643e+01, 1.78796539e+02,
          2.69877129e+01, 1.68216446e+02, 2.65486565e+01, 1.50701294e+02,
          2.68365746e+01, 1.92217606e+02, 2.95494156e+01, 1.82217606e+02,
          2.87608776e+01, 1.67198746e+02, 2.85672703e+01, 1.46701859e+02,
          2.69940891e+01, 1.34122223e+02, 2.58731728e+01, 1.16037041e+02,
          2.50100994e+01, 2.05851715e+02, 1.80699673e+01, 1.98901138e+02,
          1.78833618e+01, 1.86365021e+02, 1.82167778e+01, 2.13772415e+02,
          2.00307903e+01, 2.02924133e+02, 2.05446949e+01, 1.87786209e+02,
          2.14935989e+01, 1.43922623e+02, 2.84139633e+01, 1.36190475e+02,
          2.60338230e+01, 9.44523773e+01, 2.81977215e+01, 1.77021805e+02,
          2.85387192e+01, 1.67561310e+02, 2.84527397e+01, 1.55201630e+02,
          2.83573551e+01, 1.95514496e+02, 1.67616329e+01, 1.77384064e+02,
          1.70179482e+01, 1.58318848e+02, 1.87810993e+01, 1.90449234e+02,
          1.91726780e+01, 1.79431473e+02, 2.07868538e+01, 1.62474625e+02,
          2.15520115e+01, 1.61847260e+02, 3.06583366e+01, 1.54787582e+02,
          3.02241268e+01, 1.39861572e+02, 3.00602264e+01, 2.13986206e+02,
          1.64612274e+01, 2.06834488e+02, 1.73597603e+01, 1.92951721e+02,
          1.82236614e+01, 1.95063492e+02, 2.68364525e+01, 1.86420639e+02,
          2.71439590e+01, 1.71861115e+02, 2.62046909e+01, 1.82006210e+02,
          1.87388287e+01, 1.74621124e+02, 1.88609867e+01, 1.60173920e+02,
          1.84447021e+01, 8.61574478e+01, 3.23814850e+01, 8.65914917e+01,
          3.28131714e+01, 7.56638260e+01, 3.39087791e+01, 1.73059784e+02,
          1.63717632e+01, 1.66342392e+02, 1.62419262e+01, 1.52195648e+02,
          1.64806480e+01, 1.57231781e+02, 2.69993687e+01, 1.47463577e+02,
          2.51339817e+01, 1.33006622e+02, 2.47007408e+01, 4.79849243e+01,
          2.10704632e+01, 4.82713585e+01, 2.04321175e+01, 4.36130638e+01,
          2.12200127e+01, 9.50716476e+01, 1.99288845e+01, 1.04931465e+02,
          2.14757481e+01, 7.78971939e+01, 1.76631336e+01, 1.26027573e+02,
          3.18824272e+01, 1.22140350e+02, 3.30998993e+01, 1.09042610e+02,
          3.15937729e+01, 2.18836472e+02, 1.69346771e+01, 2.08097488e+02,
          1.68362255e+01, 1.95022018e+02, 1.75563412e+01, 2.00938965e+02,
          1.67926044e+01, 1.91812210e+02, 1.71567841e+01, 1.75199524e+02,
          1.82730942e+01, 1.47721802e+02, 2.44414425e+01, 1.46060150e+02,
          2.32397785e+01, 1.31699249e+02, 2.01997547e+01, 2.00212875e+02,
          1.82445850e+01, 1.93435638e+02, 1.79276695e+01, 1.77702972e+02,
          1.92527294e+01, 2.14087997e+02, 2.08666573e+01, 2.06325333e+02,
          1.98129158e+01, 1.91437332e+02, 1.87255917e+01, 8.51078415e+01,
          3.04018745e+01, 7.95000000e+01, 2.91315174e+01, 6.99656830e+01,
          2.89950523e+01, 2.06027527e+02, 1.88171043e+01, 1.94932617e+02,
          1.80063934e+01, 1.79304672e+02, 1.80079098e+01, 1.31536942e+02,
          1.46057892e+01, 1.65310349e+02, 1.70141830e+01, 1.64724136e+02,
          1.69160061e+01, 2.04423584e+02, 2.00427074e+01, 1.93895203e+02,
          2.14334431e+01, 1.79733627e+02, 2.24253883e+01, 2.03072464e+02,
          1.49903316e+01, 1.36985504e+02, 1.44530373e+01, 1.15014496e+02,
          1.33038521e+01, 1.15404961e+02, 1.56565104e+01, 1.41793396e+02,
          1.87642918e+01, 1.43413223e+02, 1.82083626e+01, 7.88940430e+01,
          2.34327831e+01, 5.92715225e+01, 2.53963070e+01, 5.35960274e+01,
          3.04416771e+01, 1.44921051e+02, 6.36659527e+00, 1.78228073e+02,
          8.14039993e+00, 1.71719299e+02, 9.41614914e+00, 1.58543793e+02,
          8.36090088e+00, 1.90974457e+02, 1.07316284e+01, 1.83985397e+02,
          1.19139071e+01, 1.38103607e+02, 8.77366638e+00, 1.74202698e+02,
          1.12493029e+01, 1.66599106e+02, 1.85975170e+01, 3.94540634e+01,
          2.16225185e+01, 3.92279167e+01, 1.93969078e+01, 3.98621902e+01,
          1.81601162e+01, 8.65036316e+01, 2.81896000e+01, 7.20387421e+01,
          2.99327469e+01, 6.54188843e+01, 2.93715134e+01, 7.50331116e+01,
          2.26655140e+01, 6.48874207e+01, 2.12833405e+01, 6.20066223e+01,
          2.25280552e+01, 9.89683533e+01, 3.09403419e+01, 9.32848129e+01,
          3.22039871e+01, 8.68860779e+01, 3.37287750e+01, 2.15429214e+02,
          1.89997787e+01, 1.46998505e+02, 2.14914417e+01, 1.27821159e+02,
          2.19477177e+01, 1.52625900e+02, 2.97251358e+01, 1.41661865e+02,
          2.74071693e+01, 1.53079132e+02, 3.04512119e+01, 1.24841583e+02,
          2.47373123e+01, 1.03118813e+02, 1.89769802e+01, 9.48811874e+01,
          1.84598408e+01, 1.59520859e+02, 1.59816027e+01, 1.12406464e+02,
          2.29180317e+01, 9.91736221e+01, 2.38240013e+01, 1.72060776e+02,
          3.65676193e+01, 1.55464081e+02, 3.82005692e+01, 1.43845306e+02,
          4.06755219e+01, 1.94058365e+02, 1.84556923e+01, 1.22118675e+02,
          1.55197010e+01, 1.05474709e+02, 1.52489519e+01, 1.95688782e+02,
          2.05917606e+01, 1.82153061e+02, 1.86098137e+01, 1.65443878e+02,
          1.93067513e+01, 1.32538757e+02, 2.89267235e+01, 1.22794571e+02,
          3.24577026e+01, 1.07891472e+02, 3.20943985e+01, 8.07839203e+01,
          2.38885994e+01, 6.48693466e+01, 2.63151646e+01, 5.55778885e+01,
          2.61520939e+01, 2.16907700e+02, 7.02536488e+00, 1.81500000e+02,
          1.26461992e+01, 1.86592300e+02, 1.49954491e+01, 7.03005753e+01,
          1.77397804e+01, 6.46011581e+01, 1.67816830e+01, 6.22080917e+01,
          1.74513454e+01, 2.14426285e+02, 1.57767639e+01, 1.32371796e+02,
          1.68248329e+01, 1.13370193e+02, 1.84253941e+01, 7.58130875e+01,
          2.28886280e+01, 6.68130875e+01, 2.32525635e+01, 5.81121483e+01,
          2.16678734e+01, 2.19697113e+02, 2.28792171e+01, 2.10576920e+02,
          2.07339687e+01, 2.00884613e+02, 2.02192364e+01, 9.62432404e+01,
          2.12631111e+01, 9.04810791e+01, 2.18878288e+01, 8.53675690e+01,
          2.29932652e+01, 1.38037872e+02, 1.94267483e+01, 1.29434341e+02,
          2.16842289e+01, 1.12803032e+02, 2.14476490e+01, 1.88294479e+02,
          2.40246620e+01, 1.82092026e+02, 2.48615456e+01, 1.67638031e+02,
          2.63077278e+01, 1.00831108e+02, 2.85175056e+01, 7.17333298e+01,
          2.56264381e+01, 5.94088898e+01, 2.26964035e+01, 1.92148010e+02,
          3.51349831e+01, 1.54501801e+02, 2.29355793e+01, 1.48187729e+02,
          2.90611706e+01, 1.58272446e+02, 2.47142696e+01, 1.57486069e+02,
          2.66382885e+01, 1.50055725e+02, 2.70117874e+01, 1.17346771e+02,
          2.54194221e+01, 1.22032257e+02, 2.48337345e+01, 1.25338707e+02,
          2.93977184e+01, 1.02617645e+02, 2.76240768e+01, 9.61941147e+01,
          2.81904545e+01, 8.56352921e+01, 2.82691402e+01, 1.92914780e+02,
          1.16255188e+01, 1.93431824e+02, 1.14140720e+01, 1.87210220e+02,
          1.12958202e+01, 1.85188522e+02, 1.80097923e+01, 1.81491806e+02,
          1.75923748e+01, 1.69008194e+02, 1.77258720e+01, 1.31639832e+02,
          2.64932251e+01, 1.27563560e+02, 2.82074413e+01, 1.12360168e+02,
          2.80795517e+01, 9.43988113e+01, 2.98377132e+01, 6.76666641e+01,
          2.60645599e+01, 6.25535698e+01, 2.50949707e+01, 9.26869583e+01,
          2.26925926e+01, 9.11565247e+01, 2.42659206e+01, 8.66608658e+01,
          2.37552910e+01, 7.07477264e+01, 2.50500641e+01, 7.66954575e+01,
          2.63420296e+01, 6.74181824e+01, 2.47831173e+01, 6.82260284e+01,
          2.56290474e+01, 6.13744278e+01, 2.31740303e+01, 5.64931488e+01,
          2.15610180e+01, 4.37169075e+01, 2.31549568e+01, 3.82001610e+01,
          2.06683369e+01, 3.56339722e+01, 2.00453796e+01, 1.45989685e+02,
          2.17272282e+01, 1.36072159e+02, 2.08889236e+01, 1.26608246e+02,
          2.06078892e+01, 4.85520363e+01, 2.20099831e+01, 4.22398186e+01,
          2.00563164e+01, 4.42533951e+01, 1.95668793e+01, 3.16315784e+01,
          1.54633951e+01, 2.93195496e+01, 1.40562000e+01, 2.84060154e+01,
          1.38964024e+01, 9.11481476e+01, 2.39096661e+01, 8.20164642e+01,
          2.39120235e+01, 8.20781860e+01, 2.40779991e+01, 1.28164703e+02,
          3.06913815e+01, 1.17511765e+02, 2.86910172e+01, 1.04647057e+02,
          2.78715172e+01, 1.03834221e+02, 1.70072498e+01, 9.70962601e+01,
          1.71310997e+01, 9.43689804e+01, 1.74764881e+01, 1.65790878e+02,
          2.99019699e+01, 1.58684418e+02, 2.85235138e+01, 1.50828903e+02,
          2.84110565e+01, 6.65801544e+01, 2.18668747e+01, 6.00687027e+01,
          2.09833698e+01, 6.21221390e+01, 2.14444027e+01, 5.98095245e+01,
          2.04401340e+01, 4.79795914e+01, 2.09795952e+01, 4.77278900e+01,
          1.94558010e+01, 1.11801727e+02, 2.03803921e+01, 1.08844826e+02,
          2.05610867e+01, 1.09120689e+02, 2.11200104e+01, 9.08512421e+01,
          1.80696163e+01, 8.00826416e+01, 1.83296604e+01, 7.79752045e+01,
          1.85200176e+01, 2.01318176e+02, 3.71220322e+01, 1.97040405e+02,
          3.68250504e+01, 1.86421722e+02, 3.86425552e+01, 3.76329269e+01,
          1.50638247e+01, 3.32414627e+01, 1.44207735e+01, 3.55865860e+01,
          1.46808481e+01, 1.66954712e+02, 3.54367485e+01, 1.62550949e+02,
          3.47244339e+01, 1.48199997e+02, 3.41056976e+01, 5.74473686e+01,
          1.70250263e+01, 4.46644745e+01, 1.63127327e+01, 4.33947372e+01,
          1.65133533e+01, 1.23769630e+02, 2.71001911e+01, 1.17691101e+02,
          2.63333664e+01, 1.16633507e+02, 2.57373734e+01, 2.07704117e+02,
          2.27831917e+01, 1.99314606e+02, 2.33242569e+01, 1.86359558e+02,
          2.45615292e+01, 1.92345276e+02, 1.50764284e+01, 1.85410431e+02,
          1.50977516e+01, 1.69537460e+02, 1.53604107e+01, 1.08911682e+02,
          1.82819405e+01, 9.26267776e+01, 1.83282852e+01, 7.78376083e+01,
          1.56590223e+01, 1.60920456e+02, 2.89958134e+01, 1.54213074e+02,
          2.94150486e+01, 1.37860794e+02, 2.91894379e+01, 1.56727280e+02,
          2.32597637e+01, 1.50328674e+02, 2.35128899e+01, 1.31230774e+02,
          2.41936703e+01, 4.84796524e+01, 2.13060360e+01, 4.68880806e+01,
          2.06390762e+01, 4.30232544e+01, 1.91704082e+01, 2.52542938e+02,
          7.71259260e+00, 2.52435074e+02, 7.90334034e+00, 2.51247955e+02,
          9.67631531e+00, 1.98855270e+02, 2.14819832e+01, 1.92118423e+02,
          1.94115200e+01, 1.79328949e+02, 1.86905003e+01, 2.17339447e+02,
          1.60714779e+01, 2.11204895e+02, 1.46320171e+01, 1.98987762e+02,
          1.42832813e+01, 1.24946602e+02, 5.16017761e+01, 1.21315536e+02,
          5.41574249e+01, 1.10165047e+02, 5.49159164e+01, 1.19303169e+02,
          3.42933006e+01, 1.20248871e+02, 3.61503983e+01, 1.07533936e+02,
          3.85271454e+01, 1.10873169e+02, 2.03277912e+01, 1.06497559e+02,
          1.96255703e+01, 9.05121918e+01, 1.89686565e+01, 1.61828445e+02,
          1.95004807e+01, 1.53874481e+02, 1.92209873e+01, 1.36799164e+02,
          1.83262177e+01, 1.88241379e+02, 1.79622574e+01, 1.80827591e+02,
          1.82248096e+01, 1.60579315e+02, 1.76173325e+01, 40.,
          2.08768997e+01, 4.37683411e+01, 1.74360523e+01, 3.50617752e+01,
          1.74557037e+01, 1.45894730e+02, 1.60541382e+01, 1.38277191e+02,
          1.55354099e+01, 1.21084213e+02, 1.58078222e+01, 2.20009094e+02,
          1.27462864e+01, 2.10772720e+02, 1.23501358e+01, 1.94090912e+02,
          1.27628660e+01, 2.16458008e+02, 1.81074829e+01, 2.09106873e+02,
          1.95468864e+01, 1.94770996e+02, 2.09253483e+01, 1.99077774e+02,
          1.42399454e+01, 1.91183334e+02, 1.44045601e+01, 1.73244446e+02,
          1.48601007e+01, 1.09192986e+02, 2.23149433e+01, 9.75672531e+01,
          2.08710289e+01, 8.31111145e+01, 2.18374863e+01, 1.71119492e+02,
          3.96521835e+01, 1.68553452e+02, 4.09127884e+01, 1.53496857e+02,
          4.17899933e+01, 1.93252274e+02, 1.80634727e+01, 1.81217957e+02,
          1.73956394e+01, 1.67018295e+02, 1.72614193e+01, 2.48859238e+02,
          1.42782602e+01, 2.29546219e+02, 1.42312269e+01, 2.12880249e+02,
          1.42894201e+01, 1.30456619e+02, 3.05114155e+01, 1.14803650e+02,
          3.18367805e+01, 9.98356171e+01, 3.16217670e+01, 1.84942673e+02,
          2.50203514e+01, 1.74363251e+02, 2.39533463e+01, 1.59759583e+02,
          2.42493572e+01, 7.33834915e+01, 1.66667042e+01, 6.78058243e+01,
          1.68488598e+01, 5.48446617e+01, 1.66930733e+01, 1.04087723e+02,
          3.07108383e+01, 1.03944862e+02, 2.94722767e+01, 9.51904755e+01,
          2.97341461e+01, 1.26766838e+02, 2.10543079e+01, 1.19430054e+02,
          2.20797920e+01, 1.00683937e+02, 2.30250912e+01, 8.44572372e+01,
          2.54881992e+01, 9.37269745e+01, 2.62681236e+01, 7.87730255e+01,
          2.24110527e+01, 1.00844658e+02, 2.16000900e+01, 1.36388351e+02,
          1.99947205e+01, 1.30359222e+02, 1.97145576e+01, 7.16083298e+01,
          3.10270405e+01, 7.19499969e+01, 3.07436810e+01, 6.68000031e+01,
          3.07258415e+01, 2.36659348e+02, 2.40670052e+01, 2.37285721e+02,
          2.33841152e+01, 2.31232971e+02, 2.80483112e+01, 1.01386360e+02,
          2.60219078e+01, 1.04431816e+02, 2.47115250e+01, 1.03484848e+02,
          2.52527637e+01, 1.65621780e+02, 2.15723896e+01, 1.72911179e+02,
          2.37112808e+01, 1.43108887e+02, 2.30243416e+01, 7.86941147e+01,
          5.01963081e+01, 7.96411743e+01, 4.38331375e+01, 6.29176483e+01,
          4.01746826e+01, 1.65835938e+02, 2.60338287e+01, 1.56867188e+02,
          2.59949627e+01, 1.37132812e+02, 2.35095463e+01, 5.36004028e+01,
          2.99853573e+01, 6.09598389e+01, 2.93008118e+01, 5.82891579e+01,
          2.66831150e+01, 1.50012482e+02, 1.96131554e+01, 1.98916565e+02,
          1.56694126e+01, 1.85323624e+02, 1.56500015e+01, 6.13296089e+01,
          2.88724003e+01, 8.61173172e+01, 3.58317337e+01, 7.51173172e+01,
          3.39646645e+01, 1.93872513e+02, 2.46376877e+01, 1.90402390e+02,
          2.39426289e+01, 1.76545822e+02, 2.27910709e+01, 1.09626762e+02,
          1.27577591e+01, 1.77373245e+02, 1.58712053e+01, 1.63605637e+02,
          1.60892715e+01, 2.00358353e+02, 1.73896637e+01, 1.97162231e+02,
          1.62059059e+01, 1.84639221e+02, 1.67952576e+01, 5.85704231e+01,
          1.54797506e+01, 5.56549301e+01, 1.58248596e+01, 5.23098602e+01,
          1.66009407e+01, 1.14556107e+02, 2.60694733e+01, 1.04753120e+02,
          2.60694542e+01, 9.07182007e+01, 2.55968342e+01, 1.89532257e+02,
          3.10626488e+01, 1.77526886e+02, 3.24167442e+01, 1.58494629e+02,
          3.17085114e+01, 2.12382355e+02, 1.19988012e+01, 2.01125000e+02,
          1.22978096e+01, 1.83051468e+02, 1.49934902e+01, 1.90503113e+02,
          2.25264072e+01, 1.76534164e+02, 2.37702618e+01, 1.66602478e+02,
          2.35123043e+01, 8.68333359e+01, 1.85285797e+01, 7.14736862e+01,
          1.83400574e+01, 6.75350876e+01, 1.79296455e+01, 1.71447235e+02,
          2.81474476e+01, 1.62256287e+02, 3.00188427e+01, 1.57276382e+02,
          2.93507004e+01, 2.12268219e+02, 1.66025734e+01, 2.00463577e+02,
          1.65124645e+01, 1.86615891e+02, 1.78412571e+01, 5.20499992e+01,
          3.43061485e+01, 4.47291679e+01, 2.90939293e+01, 3.90416679e+01,
          2.89492092e+01, 2.45743118e+02, 1.67936287e+01, 2.39045868e+02,
          1.73223171e+01, 2.31128433e+02, 1.83873444e+01, 1.89579361e+02,
          1.37993355e+01, 1.79666672e+02, 1.40131369e+01, 1.62087296e+02,
          1.37462835e+01, 2.27637878e+02, 1.62085686e+01, 2.17604462e+02,
          1.80794201e+01, 2.05643448e+02, 1.96175995e+01, 1.36379471e+02,
          1.90923634e+01, 1.12343674e+02, 1.97566853e+01, 9.90692139e+01,
          1.94753551e+01, 1.74131577e+02, 1.11168480e+01, 1.70403503e+02,
          1.19547224e+01, 1.63017548e+02, 1.27549973e+01, 1.35704865e+02,
          2.02334499e+01, 1.26656158e+02, 1.95729351e+01, 1.08724930e+02,
          1.96677570e+01, 1.93350784e+02, 2.39181099e+01, 1.83910995e+02,
          2.33921490e+01, 1.67248688e+02, 2.24406815e+01, 1.50423416e+02,
          3.25499763e+01, 1.44621628e+02, 3.27775002e+01, 1.36765762e+02,
          3.31176834e+01, 1.65747833e+02, 2.02509880e+01, 1.56017395e+02,
          1.89574699e+01, 1.37347824e+02, 1.88907490e+01, 1.39559525e+02,
          4.27050018e+01, 1.31399994e+02, 4.08170357e+01, 1.23095238e+02,
          4.08084831e+01, 6.84080887e+01, 2.71900311e+01, 6.22426453e+01,
          2.59853764e+01, 5.62536774e+01, 2.41765881e+01, 1.50940628e+02,
          4.21968040e+01, 1.39800003e+02, 3.94814835e+01, 1.26662498e+02,
          3.99140739e+01, 6.71148682e+01, 2.44965172e+01, 8.08671188e+01,
          2.76617413e+01, 5.52927933e+01, 2.38573608e+01, 7.65290298e+01,
          3.15648804e+01, 7.29225769e+01, 3.22791252e+01, 6.00838699e+01,
          3.12773418e+01, 1.66285721e+02, 5.17892189e+01, 1.68619049e+02,
          4.83522072e+01, 1.57285721e+02, 4.93540459e+01, 2.00273499e+02,
          1.96822281e+01, 1.89256409e+02, 1.91586628e+01, 1.73538467e+02,
          2.02248306e+01, 1.85167908e+02, 2.06104813e+01, 1.84492538e+02,
          2.00813866e+01, 1.71750000e+02, 2.02858086e+01, 1.08150444e+02,
          3.43197327e+01, 1.03330383e+02, 3.40863419e+01, 8.89203568e+01,
          3.25149422e+01, 1.51832336e+02, 1.92145939e+01, 1.48874252e+02,
          1.92040977e+01, 1.31766464e+02, 1.92638454e+01, 1.35487808e+02,
          2.08359985e+01, 1.30142853e+02, 2.07264175e+01, 1.16982582e+02,
          2.07767792e+01, 1.23821678e+02, 3.52084465e+01, 1.14451050e+02,
          3.46300163e+01, 9.60314713e+01, 3.44219780e+01, 1.77439255e+02,
          1.24965181e+01, 1.71906540e+02, 1.20787964e+01, 1.56457947e+02,
          1.26996956e+01, 1.30539825e+02, 3.12788277e+01, 1.25526550e+02,
          2.98100910e+01, 1.13393806e+02, 2.76286449e+01, 1.50389832e+02,
          6.79873514e+00, 1.48728821e+02, 6.41400862e+00, 1.34110168e+02,
          7.78974104e+00, 1.42821289e+02, 1.65762863e+01, 1.38365021e+02,
          1.66151962e+01, 1.20737640e+02, 1.61265144e+01, 1.52536331e+02,
          1.39213896e+01, 1.66702423e+02, 1.26156330e+01, 1.64626297e+02,
          1.35264196e+01, 1.77263153e+02, 2.79813900e+01, 1.66205521e+02,
          2.79949360e+01, 1.47583954e+02, 2.78437366e+01, 1.27263161e+02,
          2.47831707e+01, 1.23789474e+02, 2.49731693e+01, 1.10594734e+02,
          2.43212395e+01, 1.26793449e+02, 2.12630863e+01, 1.22448364e+02,
          2.18358307e+01, 1.05511337e+02, 2.07827377e+01, 6.99671555e+01,
          2.54527283e+01, 7.10474472e+01, 2.57866974e+01, 5.52043800e+01,
          2.47471142e+01, 1.89151169e+02, 1.64677620e+01, 1.80476746e+02,
          1.76463699e+01, 1.64325577e+02, 1.90504818e+01, 2.04270264e+02,
          2.01670437e+01, 1.92803085e+02, 1.93854179e+01, 1.75208496e+02,
          1.98883266e+01, 1.22190033e+02, 1.35719624e+01, 1.18971962e+02,
          1.33604765e+01, 1.01838005e+02, 1.37887611e+01, 4.66079559e+01,
          2.13418713e+01, 4.53352280e+01, 1.97949924e+01, 3.34176140e+01,
          1.97903271e+01, 1.38675079e+02, 1.48191128e+01, 1.34400635e+02,
          1.52782335e+01, 1.17902206e+02, 1.56652050e+01, 1.96427277e+02,
          2.30772381e+01, 1.89281815e+02, 2.32371616e+01, 1.75699997e+02,
          2.57943707e+01, 1.53875000e+02, 1.19327984e+01, 1.48433823e+02,
          1.18275900e+01, 1.32514709e+02, 1.26795168e+01, 2.13089111e+02,
          9.31568432e+00, 2.06356430e+02, 9.57244396e+00, 1.92643570e+02,
          1.00474710e+01, 1.74959534e+02, 1.88381596e+01, 1.67947983e+02,
          1.93725014e+01, 1.49317917e+02, 1.94726276e+01, 1.17181099e+02,
          2.26296673e+01, 1.14716537e+02, 2.08509064e+01, 9.34881897e+01,
          1.77258072e+01, 7.08742142e+01, 2.77695637e+01, 6.22578621e+01,
          2.69056511e+01, 5.31194954e+01, 2.65869408e+01, 1.90825394e+02,
          1.43795881e+01, 1.81925919e+02, 1.40612192e+01, 1.62539688e+02,
          1.39522266e+01, 1.50389313e+02, 1.23422804e+01, 1.42244278e+02,
          1.23612871e+01, 1.24053436e+02, 1.31244421e+01, 1.49365860e+02,
          2.66216736e+01, 1.40414627e+02, 2.55279312e+01, 1.22195122e+02,
          2.36402988e+01, 1.69387848e+02, 1.74863243e+01, 1.59306076e+02,
          1.77576656e+01, 1.41259964e+02, 1.86737671e+01, 1.86869156e+02,
          1.44608021e+01, 1.73018692e+02, 1.47347498e+01, 1.54476639e+02,
          1.61871986e+01, 1.89750000e+02, 1.50319672e+01, 1.78040909e+02,
          1.50029879e+01, 1.59327271e+02, 1.61044579e+01, 1.97892151e+02,
          1.02926702e+01, 1.87862747e+02, 9.49569702e+00, 1.69519608e+02,
          1.00307217e+01, 1.43048477e+02, 2.24512825e+01, 1.33664825e+02,
          2.17316532e+01, 1.15234070e+02, 2.00527534e+01, 5.73725395e+01,
          1.44105682e+01, 1.03208099e+02, 1.10134687e+01, 7.76266632e+01,
          1.17446613e+01, 7.37159119e+01, 7.81015015e+00, 1.03757607e+02,
          1.23693113e+01, 8.60150070e+01, 8.76724720e+00, 2.09254211e+02,
          1.65800114e+01, 1.98942474e+02, 1.57232065e+01, 1.83884186e+02,
          1.68557606e+01, 1.95193207e+02, 1.71058655e+01, 1.85362122e+02,
          1.68822765e+01, 1.70927750e+02, 1.71062679e+01, 2.00889603e+02,
          1.81638851e+01, 1.89969543e+02, 1.79636192e+01, 1.76129791e+02,
          1.78049850e+01, 2.15972198e+02, 1.24440498e+01, 2.04619400e+02,
          1.19457340e+01, 1.89709274e+02, 1.18688564e+01, 2.20282478e+01,
          1.41988430e+01, 3.09887009e+01, 1.20094604e+01, 2.34406776e+01,
          1.20471678e+01, 5.69416656e+01, 2.44998016e+01, 5.91583328e+01,
          2.54267769e+01, 5.47500000e+01, 2.64823551e+01, 5.48539696e+01,
          1.53945236e+01, 7.85936508e+01, 1.50114594e+01, 4.72222214e+01,
          1.52750206e+01, 3.44934196e+01, 1.35235863e+01, 5.98815804e+01,
          1.48974123e+01, 3.57631569e+01, 1.43507328e+01, 2.26976738e+01,
          1.41653910e+01, 3.94219284e+01, 1.28316555e+01, 2.31096344e+01,
          1.26761436e+01, 9.83093491e+01, 1.63970795e+01, 1.06471222e+02,
          1.43764839e+01, 7.81690674e+01, 1.49997654e+01, 2.92974911e+01,
          1.51051836e+01, 4.14014320e+01, 1.56858826e+01, 2.57741928e+01,
          1.55161524e+01, 3.90603180e+01, 1.44126902e+01, 6.51396790e+01,
          1.40499401e+01, 3.40793648e+01, 1.47485304e+01, 7.65488739e+01,
          1.78450680e+01, 8.83684235e+01, 1.56691523e+01, 6.28496246e+01,
          1.65426426e+01, 5.40590172e+01, 1.41359634e+01, 7.44360657e+01,
          1.43786898e+01, 4.64491806e+01, 1.30668154e+01, 66.,
          1.29496069e+01, 7.71041641e+01, 1.50995388e+01, 5.35347214e+01,
          1.42901564e+01, 2.59074078e+01, 9.04767990e+00, 3.51203690e+01,
          8.19244862e+00, 1.96851845e+01, 8.01243019e+00, 5.78185844e+01,
          2.06334743e+01, 5.62477875e+01, 2.02128811e+01, 3.78362846e+01,
          1.86777287e+01, 1.19547371e+02, 3.25642090e+01, 1.16381577e+02,
          3.18093624e+01, 9.54526291e+01, 3.08310642e+01, 5.92321434e+01,
          1.65569992e+01, 6.87321396e+01, 1.45361662e+01, 5.12544632e+01,
          1.57133083e+01, 4.94268990e+01, 1.13308105e+01, 5.11929817e+01,
          8.97599125e+00, 3.71695900e+01, 1.05077229e+01, 6.71085739e+01,
          1.64041862e+01, 7.73600006e+01, 1.20950069e+01, 5.45600014e+01,
          1.32970314e+01, 7.40253830e+01, 1.54038944e+01, 9.86294403e+01,
          1.58368511e+01, 5.30203056e+01, 1.63738098e+01, 3.61528397e+01,
          1.26382961e+01, 5.58646278e+01, 1.22744217e+01, 2.85938873e+01,
          1.37357950e+01, 3.63872223e+01, 1.40775547e+01, 3.90782280e+01,
          1.40914259e+01, 2.98226852e+01, 1.38287687e+01, 6.99945679e+01,
          1.42255440e+01, 8.18315201e+01, 1.26775427e+01, 5.47608681e+01,
          1.37883053e+01, 5.03939400e+01, 1.17467527e+01, 6.30378799e+01,
          1.13414698e+01, 4.23863640e+01, 1.10819597e+01, 5.28025208e+01,
          1.30881014e+01, 7.61638641e+01, 1.29136391e+01, 4.05798302e+01,
          1.21266146e+01, 1.15301674e+02, 3.01864586e+01, 1.21806328e+02,
          2.91711960e+01, 9.38808212e+01, 3.03444271e+01, 5.55988693e+01,
          1.05190630e+01, 8.56045227e+01, 1.09907799e+01, 4.70169487e+01,
          8.74413776e+00, 4.23082695e+01, 1.24040041e+01, 6.02819557e+01,
          1.53882895e+01, 3.12857151e+01, 1.19464664e+01, 7.73103485e+01,
          2.39691696e+01, 8.33034515e+01, 2.31499710e+01, 7.07448273e+01,
          2.12781773e+01, 2.08140163e+01, 1.06603794e+01, 3.55633430e+01,
          9.68242550e+00, 1.98167114e+01, 9.44078827e+00, 2.26043472e+01,
          9.88647270e+00, 3.69826088e+01, 1.03053665e+01, 2.06043472e+01,
          1.09662037e+01, 2.65191784e+01, 1.15241880e+01, 4.68931503e+01,
          1.26323805e+01, 2.11479454e+01, 1.07284746e+01, 8.45718918e+01,
          2.59054337e+01, 9.11568604e+01, 2.40312958e+01, 6.87385635e+01,
          2.35688801e+01, 1.92392025e+01, 1.07344894e+01, 3.94784050e+01,
          1.13573923e+01, 1.57641191e+01, 1.10266724e+01, 4.41435661e+01,
          1.20014172e+01, 7.31138611e+01, 1.19464769e+01, 3.30792084e+01,
          1.18650646e+01, 3.19284058e+01, 1.00750399e+01, 5.22655907e+01,
          1.00945139e+01, 2.76581993e+01, 1.02040997e+01, 4.25000000e+01,
          1.30547218e+01, 6.67173920e+01, 1.22011223e+01, 3.20695648e+01,
          1.26682367e+01, 5.63523827e+01, 8.62462997e+00, 8.17428589e+01,
          8.28115177e+00, 4.25904770e+01, 8.49060059e+00, 3.25182915e+01,
          1.05142822e+01, 5.40762177e+01, 1.08609638e+01, 2.80274391e+01,
          1.11306877e+01, 4.81474991e+01, 1.83140450e+01, 6.47825012e+01,
          1.59782181e+01, 4.05050011e+01, 1.77208939e+01, 4.93789139e+01,
          1.31388149e+01, 6.93640823e+01, 1.21764078e+01, 3.83920937e+01,
          1.13922472e+01, 8.12327042e+01, 2.31451645e+01, 9.23144684e+01,
          2.22622852e+01, 5.88930817e+01, 2.29111080e+01, 4.03293686e+01,
          1.21138334e+01, 6.47039261e+01, 1.21228476e+01, 3.25945320e+01,
          1.19497328e+01, 5.66397057e+01, 1.10344467e+01, 8.66176453e+01,
          9.70605564e+00, 4.21139717e+01, 9.92656898e+00, 6.37246819e+01,
          2.47125092e+01, 7.46519012e+01, 2.06843014e+01, 5.10727844e+01,
          2.43969383e+01, 1.26063156e+02, 2.24715271e+01, 1.29484207e+02,
          2.23764629e+01, 1.01757896e+02, 2.34029427e+01, 6.67337341e+01,
          1.74299088e+01, 8.49863815e+01, 1.89138756e+01, 5.04130096e+01,
          1.54819660e+01, 2.22050209e+01, 1.73536358e+01, 3.49748955e+01,
          1.43611479e+01, 1.86924686e+01, 1.48050785e+01, 1.26985292e+01,
          7.67711353e+00, 3.42352943e+01, 9.92433262e+00, 8.75000000e+00,
          7.18202496e+00, 4.88649521e+01, 2.06789856e+01, 7.17491989e+01,
          1.79804955e+01, 4.01382637e+01, 1.85048428e+01, 4.05119057e+01,
          1.58062859e+01, 7.65476227e+01, 2.00970211e+01, 2.99880943e+01,
          1.51622028e+01, 5.67487183e+01, 1.19939327e+01, 1.04887177e+02,
          1.97650108e+01, 4.38512802e+01, 1.05007496e+01, 3.87360764e+01,
          1.54472351e+01, 6.21501198e+01, 1.54598360e+01, 3.08571434e+01,
          1.53699188e+01, 5.01520004e+01, 2.21919403e+01, 8.57333298e+01,
          2.51778355e+01, 4.09786682e+01, 2.01272583e+01, 1.45472441e+01,
          9.86808872e+00, 3.67204742e+01, 1.48432064e+01, 1.27322836e+01,
          1.03289366e+01, 5.26077728e+01, 1.60649681e+01, 6.93498230e+01,
          1.41509552e+01, 3.88480568e+01, 1.48130751e+01, 8.42112656e+01,
          3.84312859e+01, 1.11757744e+02, 2.71914730e+01, 6.63014069e+01,
          3.35771637e+01, 3.35000000e+01, 1.53489866e+01, 5.75464287e+01,
          1.79135113e+01, 2.35357151e+01, 1.44234037e+01, 7.55954514e+01,
          1.24337502e+01, 9.15136337e+01, 1.17933035e+01, 5.46545448e+01,
          1.19591665e+01, 3.15329666e+01, 9.78534889e+00, 4.45219765e+01,
          1.02879572e+01, 2.76978016e+01, 9.67264748e+00, 1.97411385e+01,
          1.89264164e+01, 3.18549938e+01, 1.67294540e+01, 1.83168640e+01,
          1.83274136e+01, 4.38689651e+01, 1.86750603e+01, 5.93758621e+01,
          1.35314617e+01, 3.26206894e+01, 1.62161312e+01, 4.13141022e+01,
          1.30609770e+01, 7.17339706e+01, 1.56205940e+01, 3.32500000e+01,
          1.33996811e+01, 4.87396011e+01, 1.17138672e+01, 7.60614853e+01,
          1.47570858e+01, 3.82676315e+01, 1.20199404e+01, 3.66149063e+01,
          1.59538641e+01, 6.31677017e+01, 1.25061169e+01, 2.82422352e+01,
          1.40016861e+01, 2.84848480e+01, 1.36046286e+01, 5.02620316e+01,
          1.63078899e+01, 2.35971489e+01, 1.24696026e+01, 9.19350662e+01,
          1.53974257e+01, 1.03272728e+02, 1.39181890e+01, 7.85064926e+01,
          1.58139706e+01, 3.47439995e+01, 1.94450855e+01, 4.52560005e+01,
          1.59727106e+01, 2.46159992e+01, 1.70553112e+01, 4.27679558e+01,
          1.19536734e+01, 6.44917145e+01, 1.48505964e+01, 3.84198914e+01,
          1.17312708e+01, 2.17136650e+01, 1.17615995e+01, 3.67657280e+01,
          1.04422531e+01, 1.80455532e+01, 1.02620068e+01, 5.47614365e+01,
          1.42481041e+01, 7.46307220e+01, 1.28812065e+01, 3.90490189e+01,
          1.27786016e+01, 4.58370361e+01, 1.89411049e+01, 6.48395081e+01,
          2.10938835e+01, 3.03827152e+01, 1.67845764e+01, 3.67556114e+01,
          1.34731264e+01, 5.89576073e+01, 1.36152744e+01, 3.21546135e+01,
          1.30315399e+01, 4.15644608e+01, 1.10349979e+01, 6.54146347e+01,
          1.23466339e+01, 3.32125435e+01, 1.18690462e+01, 1.37813616e+01,
          9.69826508e+00, 3.08960571e+01, 1.22682819e+01, 1.19319000e+01,
          7.74914837e+00, 2.66808090e+01, 1.26461954e+01, 4.70686874e+01,
          1.35133514e+01, 2.46363640e+01, 1.23390484e+01, 2.08802814e+01,
          8.37039948e+00, 4.27183113e+01, 9.96687126e+00, 1.78521118e+01,
          8.56261635e+00, 5.44598923e+01, 1.51495142e+01, 7.82032089e+01,
          1.54513245e+01, 4.68663101e+01, 1.37382708e+01, 2.16062183e+01,
          1.31924992e+01, 2.84974098e+01, 8.55139160e+00, 1.50103626e+01,
          7.86274815e+00, 4.04301987e+01, 2.38224411e+01, 6.16296310e+01,
          1.79693279e+01, 3.40683746e+01, 2.04227009e+01, 6.16469917e+01,
          1.31684399e+01, 8.32112198e+01, 1.08189507e+01, 4.78279076e+01,
          1.08484449e+01, 1.02597878e+02, 1.68276825e+01, 1.17391502e+02,
          1.56131516e+01, 8.11396027e+01, 1.80356426e+01, 1.06741852e+02,
          3.03626499e+01, 1.11769424e+02, 2.25008526e+01, 7.87318268e+01,
          2.39594669e+01, 7.72704773e+01, 1.74091930e+01, 1.07726433e+02,
          1.35147314e+01, 6.45703278e+01, 1.60920601e+01, 1.19208557e+02,
          2.10749893e+01, 1.23053474e+02, 1.74703236e+01, 8.08074875e+01,
          1.84657593e+01 ]
   responses: !!opencv-matrix
      rows: 280
      cols: 1
      dt: f
      data: [ 1., 1., 1., 1., 1., 1., 1., 1., 1., 1., 1., 1., 1., 1., 1.,
          1., 1., 1., 1., 1., 1., 1., 1., 1., 1., 1., 1., 1., 1., 1., 1.,
          1., 1., 2., 2., 2., 2., 2., 2., 2., 2., 2., 2., 2., 2., 2., 2.,
          2., 2., 2., 2., 2., 2., 2., 2., 2., 2., 2., 2., 2., 2., 2., 2.,
          2., 2., 2., 2., 2., 2., 2., 2., 2., 2., 2., 2., 2., 2., 2., 2.,
          2., 2., 2., 2., 2., 2., 2., 2., 2., 2., 2., 2., 2., 2., 2., 2.,
          2., 2., 2., 2., 2., 2., 2., 2., 2., 2., 2., 2., 2., 2., 2., 2.,
          2., 2., 2., 2., 2., 2., 2., 2., 2., 2., 2., 2., 2., 2., 2., 2.,
          2., 2., 2., 2., 2., 2., 2., 2., 2., 2., 2., 2., 2., 2., 2., 2.,
          2., 2., 2., 2., 2., 2., 2., 2., 2., 2., 2., 2., 2., 2., 2., 2.,
          2., 2., 2., 2., 2., 2., 2., 2., 2., 2., 2., 2., 2., 2., 2., 2.,
          2., 2., 2., 2., 2., 2., 2., 2., 2., 2., 2., 2., 2., 2., 2., 2.,
          3., 3., 4., 4., 4., 4., 5., 5., 5., 5., 5., 5., 5., 5., 5., 5.,
          5., 5., 5., 5., 5., 5., 5., 5., 5., 5., 5., 5., 5., 5., 5., 5.,
          5., 5., 5., 5., 5., 5., 5., 5., 5., 5., 5., 5., 5., 5., 5., 5.,
          5., 5., 5., 5., 5., 5., 5., 5., 5., 5., 5., 5., 5., 5., 5., 5.,
          5., 5., 5., 5., 5., 5., 5., 5., 5., 5., 5., 5., 5., 5., 5., 5.,
          5., 5., 5., 5., 6., 6., 6., 6., 6. ]
   DecisionRule: 0
