svm_type c_svc
kernel_type linear
nr_class 6
total_sv 109
rho 1.03094 0.90878 2.14328 1.11658 3.86815 2.68162 -0.998726 0.417193 -1.80758 -2.7309 1.95372 0.14535 4.53521 3.68478 -13.3303
label 1 2 3 4 5 6
nr_sv 33 50 2 4 15 5
SV
1 0 0.05035873090282059 0.9606208052978209 0 1:66.130684 2:19.927296 3:56.982956 4:19.368155 5:51.335228 6:19.309395 
1 0 0 0.117909829645587 0 1:143.18382 2:14.255448 3:138.77206 4:14.015846 5:123.54412 6:13.022982 
1 0 0 0 0 1:153.47223 2:40.989277 3:148.49074 4:40.382401 5:131.60185 6:40.84343 
1 0 0 0 0 1:162.26207 2:16.4245 3:155.21379 4:15.741041 5:139.09656 6:15.484456 
1 0.0003434062976371874 0.5503818286937826 0 0.02117624927582399 1:183.29445 2:10.542119 3:175.37778 4:10.538652 5:157.79445 6:10.212107 
1 0.002112254096506217 0 1 0.3849672925344427 1:90.355301 2:19.049387 3:109.04298 4:18.172256 5:73.670486 6:17.068583 
1 0 0 0 0 1:193.17157 2:14.956916 3:183.03922 4:15.203009 5:166.42157 6:15.001764 
1 0 0 0 0 1:178.79654 2:26.987713 3:168.21645 4:26.548656 5:150.70129 6:26.836575 
1 0 0 0 0 1:192.21761 2:29.549416 3:182.21761 4:28.760878 5:167.19875 6:28.56727 
1 0 0 0 0 1:146.70186 2:26.994089 3:134.12222 4:25.873173 5:116.03704 6:25.010099 
1 0 0.5565013963767309 0 0 1:205.85172 2:18.069967 3:198.90114 4:17.883362 5:186.36502 6:18.216778 
1 0 0 0 0 1:213.77242 2:20.03079 3:202.92413 4:20.544695 5:187.78621 6:21.493599 
1 0 0 0.2452601554240785 0.11100465830949 1:143.92262 2:28.413963 3:136.19048 4:26.033823 5:94.452377 6:28.197721 
1 0 0 0 0 1:177.0218 2:28.538719 3:167.56131 4:28.45274 5:155.20163 6:28.357355 
1 0 0.2240474016056258 0 0 1:195.5145 2:16.761633 3:177.38406 4:17.017948 5:158.31885 6:18.781099 
1 0 0 0 0 1:190.44923 2:19.172678 3:179.43147 4:20.786854 5:162.47462 6:21.552011 
1 0 0 0 0 1:161.84726 2:30.658337 3:154.78758 4:30.224127 5:139.86157 6:30.060226 
1 0 0 0 0 1:213.98621 2:16.461227 3:206.83449 4:17.35976 5:192.95172 6:18.223661 
1 0 0 0 0 1:195.06349 2:26.836452 3:186.42064 4:27.143959 5:171.86111 6:26.204691 
1 0 0 0 0 1:182.00621 2:18.738829 3:174.62112 4:18.860987 5:160.17392 6:18.444702 
1 0 0 1 0 1:86.157448 2:32.381485 3:86.591492 4:32.813171 5:75.663826 6:33.908779 
1 0 0 0 0 1:173.05978 2:16.371763 3:166.34239 4:16.241926 5:152.19565 6:16.480648 
1 0 0 0 0 1:157.23178 2:26.999369 3:147.46358 4:25.133982 5:133.00662 6:24.700741 
1 0.0008680539310600646 0 1 0.01592390017603072 1:47.984924 2:21.070463 3:48.271358 4:20.432117 5:43.613064 6:21.220013 
1 0 0 1 0 1:95.071648 2:19.928885 3:104.93147 4:21.475748 5:77.897194 6:17.663134 
1 0 0 0 0 1:126.02757 2:31.882427 3:122.14035 4:33.099899 5:109.04261 6:31.593773 
1 0 1 0 0 1:218.83647 2:16.934677 3:208.09749 4:16.836226 5:195.02202 6:17.556341 
1 0 0 0 0 1:200.93896 2:16.792604 3:191.81221 4:17.156784 5:175.19952 6:18.273094 
1 0 0 0 0 1:147.7218 2:24.441442 3:146.06015 4:23.239779 5:131.69925 6:20.199755 
1 0 0 0 0 1:200.21288 2:18.244585 3:193.43564 4:17.92767 5:177.70297 6:19.252729 
1 0 0 0 0 1:214.088 2:20.866657 3:206.32533 4:19.812916 5:191.43733 6:18.725592 
1 0 0 1 0 1:85.107841 2:30.401875 3:79.5 4:29.131517 5:69.965683 6:28.995052 
1 0 1 0 0 1:206.02753 2:18.817104 3:194.93262 4:18.006393 5:179.30467 6:18.00791 
-0 0 0.05725585930161076 0 0.002831796562735755 1:203.07246 2:14.990332 3:136.9855 4:14.453037 5:115.0145 6:13.303852 
-0 0 0 0.1024041409483579 0 1:78.894043 2:23.432783 3:59.271523 4:25.396307 5:53.596027 6:30.441677 
-0.3194347049981135 0 0 0.2050386550491791 0 1:138.10361 2:8.7736664 3:174.2027 4:11.249303 5:166.59911 6:18.597517 
-0.6116248446134379 0 0.06722711682791573 0 0 1:215.42921 2:18.999779 3:146.9985 4:21.491442 5:127.82116 6:21.947718 
-1 0 0 0 0 1:172.06078 2:36.567619 3:155.46408 4:38.200569 5:143.84531 6:40.675522 
-0.4257495628407161 0 0 0 0 1:219.69711 2:22.879217 3:210.57692 4:20.733969 5:200.88461 6:20.219236 
-0 0.008801537451888729 0 0 0 1:31.631578 2:15.463395 3:29.31955 4:14.0562 5:28.406015 6:13.896402 
-1 0 0 0 0 1:192.34528 2:15.076428 3:185.41043 4:15.097752 5:169.53746 6:15.360411 
-1 0 0 0 0 1:160.92046 2:28.995813 3:154.21307 4:29.415049 5:137.86079 6:29.189438 
-0 0 0.4493303615838281 0 0 1:252.54294 2:7.7125926 3:252.43507 4:7.9033403 5:251.24796 6:9.6763153 
-1 0 0 0 0 1:188.24138 2:17.962257 3:180.82759 4:18.22481 5:160.57932 6:17.617332 
-0 0 0 1 0 1:40 2:20.8769 3:43.768341 4:17.436052 5:35.061775 6:17.455704 
-0.7973990959251387 0 0 0 0 1:216.45801 2:18.107483 3:209.10687 4:19.546886 5:194.771 6:20.925348 
-1 0 0.1466751373013618 0 0 1:199.07777 2:14.239945 3:191.18333 4:14.40456 5:173.24445 6:14.860101 
-1 0 0 0 0 1:193.25227 2:18.063473 3:181.21796 4:17.395639 5:167.0183 6:17.261419 
-0 0 1 0 0 1:248.85924 2:14.27826 3:229.54622 4:14.231227 5:212.88025 6:14.28942 
-1 0 0 0 0 1:184.94267 2:25.020351 3:174.36325 4:23.953346 5:159.75958 6:24.249357 
-0 0 0 1 0 1:73.383492 2:16.666704 3:67.805824 4:16.84886 5:54.844662 6:16.693073 
-0.05454360201432625 0 0 0 0 1:126.76684 2:21.054308 3:119.43005 4:22.079792 5:100.68394 6:23.025091 
-0 0 0.1679316885618974 0 0 1:84.457237 2:25.488199 3:93.726974 4:26.268124 5:78.773026 6:22.411053 
-0.08552535286478052 0 0 0.9156695958395864 0.007309469480337368 1:165.62178 2:21.57239 3:172.91118 4:23.711281 5:143.10889 6:23.024342 
-1 0 0 0 0 1:78.694115 2:50.196308 3:79.641174 4:43.833138 5:62.917648 6:40.174683 
-1 0 0 0 0 1:165.83594 2:26.033829 3:156.86719 4:25.994963 5:137.13281 6:23.509546 
-0.3889517289186137 0.006170655689862255 0 0 0 1:109.62676 2:12.757759 3:177.37325 4:15.871205 5:163.60564 6:16.089272 
-1 0 1 0 0 1:200.35835 2:17.389664 3:197.16223 4:16.205906 5:184.63922 6:16.795258 
-1 0 0 0 0 1:212.38235 2:11.998801 3:201.125 4:12.29781 5:183.05147 6:14.99349 
-1 0 0 0 0 1:171.44724 2:28.147448 3:162.25629 4:30.018843 5:157.27638 6:29.3507 
-0 0 0 0.788674283554481 0 1:52.049999 2:34.306149 3:44.729168 4:29.093929 5:39.041668 6:28.949209 
-0.02090777981229312 0 0 0 0 1:193.35078 2:23.91811 3:183.911 4:23.392149 5:167.24869 6:22.440681 
-1 0 0.7247431305647569 0 0 1:165.74783 2:20.250988 3:156.0174 4:18.95747 5:137.34782 6:18.890749 
-1 0 0 0 0 1:150.94063 2:42.196804 3:139.8 4:39.481483 5:126.6625 6:39.914074 
-1 0 0 1 0.01895886564603617 1:67.114868 2:24.496517 3:80.867119 4:27.661741 5:55.292793 6:23.857361 
-0.295502166491882 0 0 0 0 1:76.52903 2:31.56488 3:72.922577 4:32.279125 5:60.08387 6:31.277342 
-1 0 0 0 0 1:166.28572 2:51.789219 3:168.61905 4:48.352207 5:157.28572 6:49.354046 
-1 0 0 0 0 1:108.15044 2:34.319733 3:103.33038 4:34.086342 5:88.920357 6:32.514942 
-1 0 0 0 0 1:177.43925 2:12.496518 3:171.90654 4:12.078796 5:156.45795 6:12.699696 
-1 0.002361415007748841 0 0 0 1:150.38983 2:6.7987351 3:148.72882 4:6.4140086 5:134.11017 6:7.789741 
-1 0 0 0 0 1:177.26315 2:27.98139 3:166.20552 4:27.994936 5:147.58395 6:27.843737 
-1 0 0 0 0 1:126.79345 2:21.263086 3:122.44836 4:21.835831 5:105.51134 6:20.782738 
-0 0 0 1 0 1:69.967155 2:25.452728 3:71.047447 4:25.786697 5:55.20438 6:24.747114 
-1 0 0 0.09290298785305831 0 1:122.19003 2:13.571962 3:118.97196 4:13.360476 5:101.83801 6:13.788761 
-0.0003611615207341131 0 0 1 0 1:46.607956 2:21.341871 3:45.335228 4:19.794992 5:33.417614 6:19.790327 
-1 0 0 0 0 1:153.875 2:11.932798 3:148.43382 4:11.82759 5:132.51471 6:12.679517 
-1 0 0 0 0 1:213.08911 2:9.3156843 3:206.35643 4:9.572444 5:192.64357 6:10.047471 
-1 0 0.04719148795029515 0 0.001093628368618936 1:117.1811 2:22.629667 3:114.71654 4:20.850906 5:93.48819 6:17.725807 
-1 0 0 0 0 1:150.38931 2:12.34228 3:142.24428 4:12.361287 5:124.05344 6:13.124442 
-1 0 0 0 0 1:149.36586 2:26.621674 3:140.41463 4:25.527931 5:122.19512 6:23.640299 
-1 0 0 0 0 1:169.38785 2:17.486324 3:159.30608 4:17.757666 5:141.25996 6:18.673767 
-1 0 0.3396452179083489 0 0 1:186.86916 2:14.460802 3:173.01869 4:14.73475 5:154.47664 6:16.187199 
-1 0 0 0 0 1:143.04848 2:22.451283 3:133.66483 4:21.731653 5:115.23407 6:20.052753 
-0 -0 0 0 0.002267599306588169 1:57.37254 2:14.410568 3:103.2081 4:11.013469 5:77.626663 6:11.744661 
-0.003323714325203469 -0.01733360814949981 6.943837224687487e-05 0.004965452137681188 0.001544791912243961 1:73.715912 2:7.8101501 3:103.75761 4:12.369311 5:86.015007 6:8.7672472 
-1 -1 -0 0 0 1:209.25421 2:16.580011 3:198.94247 4:15.723207 5:183.88419 6:16.855761 
-1 -1 -6.943837224687487e-05 0.0001564406329469157 0.0001123870272044932 1:195.19321 2:17.105865 3:185.36212 4:16.882277 5:170.92775 6:17.106268 
-1 -1 -0 0 0 1:200.8896 2:18.163885 3:189.96954 4:17.963619 5:176.12979 6:17.804985 
-0.3812893575789654 -1 -0 0 0 1:215.9722 2:12.44405 3:204.6194 4:11.945734 5:189.70927 6:11.868856 
-0 -0.4798797517296241 -0 -0 0 1:22.028248 2:14.198843 3:30.988701 4:12.00946 5:23.440678 6:12.047168 
-1 -1 -0 -0 0 1:56.941666 2:24.499802 3:59.158333 4:25.426777 5:54.75 6:26.482355 
-0 -0 -0 -0 1 1:98.309349 2:16.397079 3:106.47122 4:14.376484 5:78.169067 6:14.999765 
-1 -1 -0 -0 0 1:57.818584 2:20.633474 3:56.247787 4:20.212881 5:37.836285 6:18.677729 
-1 -1 -0 -0 0 1:119.54737 2:32.564209 3:116.38158 4:31.809362 5:95.452629 6:30.831064 
-0.7299457071319444 -1 -0 -0 0 1:36.387222 2:14.077555 3:39.078228 4:14.091426 5:29.822685 6:13.828769 
-0.1877639259138796 -0 -0 -0 0 1:115.30167 2:30.186459 3:121.80633 4:29.171196 5:93.880821 6:30.344427 
-0 -0 -0.0009327094857322853 -0 0 1:55.598869 2:10.519063 3:85.604523 4:10.99078 5:47.016949 6:8.7441378 
-1 -1 -0 -0 0 1:77.310349 2:23.96917 3:83.303452 4:23.149971 5:70.744827 6:21.278177 
-0.4060811573216564 -0.6248099115150502 -0 -0 0 1:84.571892 2:25.905434 3:91.15686 4:24.031296 5:68.738564 6:23.56888 
-0 -0 -0 -0 1 1:56.639706 2:11.034447 3:86.617645 4:9.7060556 5:42.113972 6:9.926569 
-1 -1 -0 -0.0001564406329469157 0.3527840054047254 1:126.06316 2:22.471527 3:129.48421 4:22.376463 5:101.7579 6:23.402943 
-0 -0 -0 -0 0.2537566743447743 1:84.211266 2:38.431286 3:111.75774 4:27.191473 5:66.301407 6:33.577164 
-0 -0 -0 -0 0.02287248692926972 1:75.595451 2:12.43375 3:91.513634 4:11.793303 5:54.654545 6:11.959167 
-0 -0 -0.004032742651948903 -0 0 1:91.935066 2:15.397426 3:103.27273 4:13.918189 5:78.506493 6:15.813971 
-0 -0 -0.0003098464242626382 -0 -1 1:61.646992 2:13.16844 3:83.21122 4:10.818951 5:47.827908 6:10.848445 
-0.3584891343788887 -0.009128455876137297 -0 -0 -0.9449663921977727 1:102.59788 2:16.827682 3:117.3915 4:15.613152 5:81.139603 6:18.035643 
-0.1745242673139599 -0.02106530418159088 -0 -0 -0.3793239221834149 1:106.74185 2:30.36265 3:111.76942 4:22.500853 5:78.731827 6:23.959467 
-0 -0 -0.003502544794569492 -0 -0.3051228522975803 1:77.270477 2:17.409193 3:107.72643 4:13.514731 5:64.570328 6:16.09206 
-5.86986029387472e-05 -0 -0 -0.0001123870272044932 -0 1:119.20856 2:21.074989 3:123.05347 4:17.470324 5:80.807487 6:18.465759 
