%YAML:1.0
---
opencv_ml_nbayes:
   format: 3
   var_count: 6
   var_all: 6
   cls_labels: !!opencv-matrix
      rows: 6
      cols: 1
      dt: i
      data: [ 1, 2, 3, 4, 5, 6 ]
   count:
      - !!opencv-matrix
         rows: 1
         cols: 6
         dt: i
         data: [ 33, 33, 33, 33, 33, 33 ]
      - !!opencv-matrix
         rows: 1
         cols: 6
         dt: i
         data: [ 158, 158, 158, 158, 158, 158 ]
      - !!opencv-matrix
         rows: 1
         cols: 6
         dt: i
         data: [ 2, 2, 2, 2, 2, 2 ]
      - !!opencv-matrix
         rows: 1
         cols: 6
         dt: i
         data: [ 4, 4, 4, 4, 4, 4 ]
      - !!opencv-matrix
         rows: 1
         cols: 6
         dt: i
         data: [ 78, 78, 78, 78, 78, 78 ]
      - !!opencv-matrix
         rows: 1
         cols: 6
         dt: i
         data: [ 5, 5, 5, 5, 5, 5 ]
   sum:
      - !!opencv-matrix
         rows: 1
         cols: 6
         dt: d
         data: [ 5.3474882202148438e+03, 7.3849209308624268e+02,
             5.1324362907409668e+03, 7.3022044944763184e+02,
             4.5985987968444824e+03, 7.2746606540679932e+02 ]
      - !!opencv-matrix
         rows: 1
         cols: 6
         dt: d
         data: [ 2.2230823343276978e+04, 3.5219281129837036e+03,
             2.1199333892822266e+04, 3.4998967738151550e+03,
             1.9417512220382690e+04, 3.5230521645545959e+03 ]
      - !!opencv-matrix
         rows: 1
         cols: 6
         dt: d
         data: [ 1.3108845138549805e+02, 2.2220718383789062e+01,
             2.0696570587158203e+02, 2.3382780075073242e+01,
             1.6364167022705078e+02, 2.0511908531188965e+01 ]
      - !!opencv-matrix
         rows: 1
         cols: 6
         dt: d
         data: [ 8.2130921936035156e+02, 6.4293811798095703e+01,
             7.7889353942871094e+02, 6.2514836311340332e+01,
             7.2065100097656250e+02, 6.3635869979858398e+01 ]
      - !!opencv-matrix
         rows: 1
         cols: 6
         dt: d
         data: [ 3.7856411428451538e+03, 1.2069160413742065e+03,
             5.1732829647064209e+03, 1.1799474229812622e+03,
             3.0545037403106689e+03, 1.1404171161651611e+03 ]
      - !!opencv-matrix
         rows: 1
         cols: 6
         dt: d
         data: [ 4.6746575546264648e+02, 9.8842954635620117e+01,
             5.4315205383300781e+02, 7.9918009757995605e+01,
             3.5307715225219727e+02, 8.7401373863220215e+01 ]
   productsum:
      - !!opencv-matrix
         rows: 6
         cols: 6
         dt: d
         data: [ 9.3706841703339154e+05, 1.1659167404861686e+05,
             8.9624983653660165e+05, 1.1546612791846988e+05,
             8.0956684439892881e+05, 1.1550136972362976e+05,
             1.1659167404861686e+05, 1.7974440380768083e+04,
             1.1185301349474008e+05, 1.7740525731745965e+04,
             9.9929975951801302e+04, 1.7669659472266729e+04,
             8.9624983653660165e+05, 1.1185301349474008e+05,
             8.5820451554827765e+05, 1.1079063419998920e+05,
             7.7448781917798310e+05, 1.1072031634778669e+05,
             1.1546612791846988e+05, 1.7740525731745965e+04,
             1.1079063419998920e+05, 1.7533499087337153e+04,
             9.9040189299962934e+04, 1.7460093110033435e+04,
             8.0956684439892881e+05, 9.9929975951801302e+04,
             7.7448781917798310e+05, 9.9040189299962934e+04,
             7.0095437988346152e+05, 9.9021498914998840e+04,
             1.1550136972362976e+05, 1.7669659472266729e+04,
             1.1072031634778669e+05, 1.7460093110033435e+04,
             9.9021498914998840e+04, 1.7434244675942973e+04 ]
      - !!opencv-matrix
         rows: 6
         cols: 6
         dt: d
         data: [ 3.5787262711950606e+06, 4.7842584969607543e+05,
             3.3966100066103167e+06, 4.7678277723098232e+05,
             3.1216657683525151e+06, 4.8456827592892596e+05,
             4.7842584969607543e+05, 8.9114858797034976e+04,
             4.5451604166182579e+05, 8.7895198109753896e+04,
             4.1502980113182514e+05, 8.8038300516422678e+04,
             3.3966100066103167e+06, 4.5451604166182579e+05,
             3.2669408761688340e+06, 4.5368792499273177e+05,
             3.0068521057393309e+06, 4.6118293867012707e+05,
             4.7678277723098232e+05, 8.7895198109753896e+04,
             4.5368792499273177e+05, 8.7367587183139141e+04,
             4.1423510603044619e+05, 8.7524424342217913e+04,
             3.1216657683525151e+06, 4.1502980113182514e+05,
             3.0068521057393309e+06, 4.1423510603044619e+05,
             2.7740180425321776e+06, 4.2182853959649208e+05,
             4.8456827592892596e+05, 8.8038300516422678e+04,
             4.6118293867012707e+05, 8.7524424342217913e+04,
             4.2182853959649208e+05, 8.8065540299724802e+04 ]
      - !!opencv-matrix
         rows: 6
         cols: 6
         dt: d
         data: [ 8.7256439531272190e+03, 1.4025032355567091e+03,
             1.3569897336212802e+04, 1.5436857347119985e+03,
             1.0794313479230914e+04, 1.3201066682718738e+03,
             1.4025032355567091e+03, 2.6866292223264463e+02,
             2.2976498441996519e+03, 2.5531652155837219e+02,
             1.7904344468628988e+03, 2.3772076054039644e+02,
             1.3569897336212802e+04, 2.2976498441996519e+03,
             2.1417552682510170e+04, 2.4200893143315552e+03,
             1.6936411621686246e+04, 2.1218127588018615e+03,
             1.5436857347119985e+03, 2.5531652155837219e+02,
             2.4200893143315552e+03, 2.7429635658450024e+02,
             1.9188852299190694e+03, 2.3779427060836042e+02,
             1.0794313479230914e+04, 1.7904344468628988e+03,
             1.6936411621686246e+04, 1.9188852299190694e+03,
             1.3424480273295485e+04, 1.6658136990941057e+03,
             1.3201066682718738e+03, 2.3772076054039644e+02,
             2.1218127588018615e+03, 2.3779427060836042e+02,
             1.6658136990941057e+03, 2.1480169325016050e+02 ]
      - !!opencv-matrix
         rows: 6
         cols: 6
         dt: d
         data: [ 1.6888833595162653e+05, 1.3144890406653722e+04,
             1.6016598529987549e+05, 1.2774103645798867e+04,
             1.4819704869634425e+05, 1.3006345568274846e+04,
             1.3144890406653722e+04, 1.0522885095546590e+03,
             1.2466126977263601e+04, 1.0244193197451332e+03,
             1.1532621940093522e+04, 1.0431905637571144e+03,
             1.6016598529987549e+05, 1.2466126977263601e+04,
             1.5189475053157774e+05, 1.2114217678953544e+04,
             1.4054339914675686e+05, 1.2335183993866580e+04,
             1.2774103645798867e+04, 1.0244193197451332e+03,
             1.2114217678953544e+04, 9.9762266157042995e+02,
             1.1207043604018370e+04, 1.0154435241154006e+03,
             1.4819704869634425e+05, 1.1532621940093522e+04,
             1.4054339914675686e+05, 1.1207043604018370e+04,
             1.3004100150049897e+05, 1.1411064130475454e+04,
             1.3006345568274846e+04, 1.0431905637571144e+03,
             1.2335183993866580e+04, 1.0154435241154006e+03,
             1.1411064130475454e+04, 1.0346283124601578e+03 ]
      - !!opencv-matrix
         rows: 6
         cols: 6
         dt: d
         data: [ 2.2856609551602078e+05, 6.5181307494604000e+04,
             2.9093019962544204e+05, 6.2818928840205757e+04,
             1.8342365252264138e+05, 6.1903742088935724e+04,
             6.5181307494604000e+04, 2.1114812915045677e+04,
             8.5394014400280867e+04, 2.0136212160003968e+04,
             5.2571327451403122e+04, 1.9879217634232693e+04,
             2.9093019962544204e+05, 8.5394014400280867e+04,
             3.8423177896215790e+05, 8.3246140301475869e+04,
             2.3353446548300295e+05, 8.0987462414607537e+04,
             6.2818928840205757e+04, 2.0136212160003968e+04,
             8.3246140301475869e+04, 1.9694755431443900e+04,
             5.0683022174264697e+04, 1.9063759027402237e+04,
             1.8342365252264138e+05, 5.2571327451403122e+04,
             2.3353446548300295e+05, 5.0683022174264697e+04,
             1.4802856191227189e+05, 4.9989765503324481e+04,
             6.1903742088935724e+04, 1.9879217634232693e+04,
             8.0987462414607537e+04, 1.9063759027402237e+04,
             4.9989765503324481e+04, 1.8832491259403450e+04 ]
      - !!opencv-matrix
         rows: 6
         cols: 6
         dt: d
         data: [ 4.5901905738583722e+04, 9.6367804123490569e+03,
             5.2097415714853880e+04, 7.7975164545722218e+03,
             3.4299502656862300e+04, 8.5213882003618746e+03,
             9.6367804123490569e+03, 2.1257043937130766e+03,
             1.0933585702472163e+04, 1.6918548184120209e+03,
             7.2128515261598586e+03, 1.8431435292307488e+03,
             5.2097415714853880e+04, 1.0933585702472163e+04,
             5.9944418061221484e+04, 8.8536945593078490e+03,
             3.9204302520750120e+04, 9.7036954160526002e+03,
             7.7975164545722218e+03, 1.6918548184120209e+03,
             8.8536945593078490e+03, 1.3549687320012972e+03,
             5.8402095022236608e+03, 1.4781531048427096e+03,
             3.4299502656862300e+04, 7.2128515261598586e+03,
             3.9204302520750120e+04, 5.8402095022236608e+03,
             2.5769021671223993e+04, 6.3998771044448258e+03,
             8.5213882003618746e+03, 1.8431435292307488e+03,
             9.7036954160526002e+03, 1.4781531048427096e+03,
             6.3998771044448258e+03, 1.6169678818158145e+03 ]
   avg:
      - !!opencv-matrix
         rows: 1
         cols: 6
         dt: d
         data: [ 1.6204509758226800e+02, 2.2378548275340687e+01,
             1.5552837244669595e+02, 2.2127892407503996e+01,
             1.3935147869225705e+02, 2.2044426224448465e+01 ]
      - !!opencv-matrix
         rows: 1
         cols: 6
         dt: d
         data: [ 1.4070141356504416e+02, 2.2290684259390527e+01,
             1.3417299932165992e+02, 2.2151245403893387e+01,
             1.2289564696444741e+02, 2.2297798509839215e+01 ]
      - !!opencv-matrix
         rows: 1
         cols: 6
         dt: d
         data: [ 6.5544225692749023e+01, 1.1110359191894531e+01,
             1.0348285293579102e+02, 1.1691390037536621e+01,
             8.1820835113525391e+01, 1.0255954265594482e+01 ]
      - !!opencv-matrix
         rows: 1
         cols: 6
         dt: d
         data: [ 2.0532730484008789e+02, 1.6073452949523926e+01,
             1.9472338485717773e+02, 1.5628709077835083e+01,
             1.8016275024414062e+02, 1.5908967494964600e+01 ]
      - !!opencv-matrix
         rows: 1
         cols: 6
         dt: d
         data: [ 4.8533860805707100e+01, 1.5473282581720596e+01,
             6.6324140573159241e+01, 1.5127531063862335e+01,
             3.9160304362957291e+01, 1.4620732258527706e+01 ]
      - !!opencv-matrix
         rows: 1
         cols: 6
         dt: d
         data: [ 9.3493151092529303e+01, 1.9768590927124023e+01,
             1.0863041076660156e+02, 1.5983601951599121e+01,
             7.0615430450439447e+01, 1.7480274772644044e+01 ]
   inv_eigen_values:
      - !!opencv-matrix
         rows: 6
         cols: 1
         dt: d
         data: [ 1.6870303691763990e-04, 8.3533643446005983e-03,
             3.7739439163900303e-02, 7.0264383394773852e-02,
             1.1362073420988781e+00, 3.8404364516462590e+00 ]
      - !!opencv-matrix
         rows: 6
         cols: 1
         dt: d
         data: [ 1.2803072282191154e-04, 4.5967096837240011e-03,
             5.7612413723451359e-03, 5.7604326079427136e-02,
             3.0526446607575608e-01, 1.3593318511619712e+00 ]
      - !!opencv-matrix
         rows: 6
         cols: 1
         dt: d
         data: [ 5.1015083775132006e-03, 8388608., 8388608., 8388608.,
             8388608., 8388608. ]
      - !!opencv-matrix
         rows: 6
         cols: 1
         dt: d
         data: [ 4.1305891992117179e-03, 1.6402798416742467e-01,
             3.9612444228696639e+00, 8388608., 8388608., 8388608. ]
      - !!opencv-matrix
         rows: 6
         cols: 1
         dt: d
         data: [ 6.8508249615930315e-04, 1.5929184939844961e-02,
             2.7029400617327483e-02, 1.6822356316269912e-01,
             3.4446499275700926e-01, 1.5287276734488333e+00 ]
      - !!opencv-matrix
         rows: 6
         cols: 1
         dt: d
         data: [ 1.0002965249249981e-03, 2.0434456570736812e-02,
             4.2124660675471701e-02, 1.6713860072795350e-01, 8388608.,
             8388608. ]
   cov_rotate_mats:
      - !!opencv-matrix
         rows: 6
         cols: 6
         dt: d
         data: [ 6.0827207438018427e-01, -2.8114854340563555e-02,
             5.6042282677575672e-01, -2.5973555460255537e-02,
             5.6032959801135440e-01, -2.2293715089537851e-02,
             8.1424569775135153e-02, 5.7885632188468461e-01,
             -1.7062106118214571e-02, 5.6786309241269206e-01,
             7.0857498169339655e-03, 5.7921117307153669e-01,
             -3.4362865157441325e-01, -1.4081990685182630e-02,
             -4.4946813355284226e-01, 3.5096673017967789e-02,
             8.2367833766869192e-01, 4.6544467369926523e-03,
             7.0597545178801047e-01, -5.8943365948394971e-02,
             -6.9228321196553733e-01, -1.0351088525302055e-01,
             -8.0076455653606576e-02, 4.1731923010555304e-02,
             -6.1280400457317766e-02, -6.0550901765560650e-01,
             6.0050461366936217e-02, -1.6206889978963857e-01,
             -6.1933852172554242e-04, 7.7442286400126581e-01,
             5.6016486642927632e-02, -5.4205269141136248e-01,
             -2.7412281997348881e-02, 7.9915222241474704e-01,
             -3.3494887177862420e-02, -2.5004683100589703e-01 ]
      - !!opencv-matrix
         rows: 6
         cols: 6
         dt: d
         data: [ 5.9155072557393629e-01, -2.5424935787476930e-02,
             5.8330295370556640e-01, -2.2827606202790340e-02,
             5.5532798876522460e-01, -1.6392107873446658e-02,
             -7.8472167643257884e-01, -1.3887492879375343e-01,
             3.2217395452324976e-01, -1.2205699019987791e-01,
             4.8273713021525572e-01, -1.1487620280593465e-01,
             1.5404664922603020e-01, -5.6932025293471500e-01,
             -1.0842279181596233e-01, -5.6118223740461282e-01,
             -1.1583290785471120e-01, -5.5861060816537655e-01,
             1.0198014832568278e-01, -4.1397338193346171e-03,
             -7.3390000897524810e-01, -5.6495779382232443e-02,
             6.6250628754760976e-01, 9.4166526161822806e-02,
             -4.8032653306149826e-03, 7.8966381431146404e-01,
             -2.2806629365104920e-02, -2.5006814231821339e-01,
             3.8461870576493661e-02, -5.5845720997719339e-01,
             -1.1235544564473971e-02, 1.7987690057942296e-01,
             7.1251245064060248e-02, -7.7712910064509977e-01,
             -6.9025567256434175e-02, 5.9476647118727788e-01 ]
      - !!opencv-matrix
         rows: 6
         cols: 6
         dt: d
         data: [ 8.2542188497892999e-01, -3.3335406103321580e-01,
             2.7752853612656322e-02, 6.8476818799944369e-02,
             4.2365323473075367e-01, -1.5037427604499409e-01,
             5.5108454163777743e-01, 3.3562459856418764e-01,
             -2.9432423162024920e-02, -7.5056546059687396e-02,
             -7.4760548292025575e-01, 1.3508606913550131e-01,
             -5.6731751114701565e-02, -6.4180390635150109e-01,
             1.2597976098698460e-01, 4.4060971949004601e-01,
             -2.8083500334451916e-01, 5.4405250667234506e-01,
             -1.0845865572153861e-01, -5.0041079239087960e-01,
             -1.5246909035815387e-02, -9.9360371686027751e-02,
             -4.2742149513082400e-01, -7.3826260413297906e-01,
             1.6637849161788836e-03, -2.9110251260348596e-01,
             -7.1804120561640516e-01, -5.6479293692761856e-01,
             6.8223900764231215e-03, 2.8396439812580299e-01,
             1.9923251893355211e-17, -1.7078439811034818e-01,
             6.8313759244139194e-01, -6.8313759244139238e-01,
             -4.9289259258068480e-18, 1.9359428955638913e-01 ]
      - !!opencv-matrix
         rows: 6
         cols: 6
         dt: d
         data: [ 5.8753718484107931e-01, -1.3528262569166571e-01,
             5.5704563239196814e-01, -1.4813323752029203e-01,
             5.3263377433865933e-01, -1.4337586067233016e-01,
             1.2992818405407919e-01, 5.5148447498375086e-01,
             1.3887057407007578e-01, 4.9495298578176994e-01,
             1.5726941531197403e-01, 6.2448889291235166e-01,
             -3.7048461478173628e-01, -1.1696876225593608e-01,
             5.6776169863327464e-01, -4.8567406274435759e-01,
             -2.1699591141267183e-01, 4.9369990038380102e-01,
             -6.1232064787758222e-01, -7.9212051219617274e-02,
             -1.1000864379701149e-01, 1.9861756243849716e-02,
             7.7858372282339272e-01, 9.9935282897134613e-03,
             9.7594246959786538e-02, -8.1080357575533513e-01,
             -5.9470386625233351e-02, 4.3922260306414496e-01,
             -3.0072556381780972e-02, 3.6839563505500605e-01,
             -3.4087924661173880e-01, 1.4311050909100367e-02,
             5.7656149026806081e-01, 5.5126019825607242e-01,
             -1.9334786209963245e-01, -4.5815082563642784e-01 ]
      - !!opencv-matrix
         rows: 6
         cols: 6
         dt: d
         data: [ 6.2601345397492036e-01, 9.3075099629533378e-02,
             5.8383039575840356e-01, 8.0852092033779438e-02,
             4.9342469380334081e-01, 9.2635096042315998e-02,
             -2.4878812540436232e-01, -3.8886602558850331e-01,
             6.9713097228708276e-01, -2.5179724110900958e-01,
             -3.2672414314214993e-01, -3.6158757436722100e-01,
             3.1907384106726078e-01, -4.7980095627486935e-01,
             -3.9900009679553311e-01, -4.7660453635110206e-01,
             3.1594412456684318e-01, -4.2639098858055430e-01,
             -6.5064291145260411e-01, -1.3765926790015984e-01,
             8.1765777347512475e-02, 1.0827855506868375e-01,
             7.3422955188440864e-01, 1.4519126843098522e-02,
             -1.3964446693680463e-01, 4.8640543518932167e-01,
             8.4859547641996588e-02, -8.2047653055386094e-01,
             7.4232635273325465e-02, 2.4086471579892013e-01,
             3.9581974144451491e-02, -5.9529065246243673e-01,
             7.9129041799023761e-03, -1.3417608518562685e-01,
             -7.3206536489552526e-02, 7.8780535257167261e-01 ]
      - !!opencv-matrix
         rows: 6
         cols: 6
         dt: d
         data: [ 7.3345650184426325e-01, 1.3388199499423395e-01,
             4.6382009464394691e-01, 1.1019781909115352e-01,
             4.4915303686774166e-01, 1.2290679909288436e-01,
             -1.7497459488820169e-01, -6.6590445690332578e-01,
             5.3775229758929688e-01, -3.6783664950708167e-01,
             1.0175598009952627e-01, -3.0186011934473522e-01,
             6.4721593057222937e-01, -3.3117280039975683e-01,
             -4.2881881407316058e-01, -1.6362310076151165e-01,
             -3.8268069666158050e-01, -3.3813237864125012e-01,
             -6.2751766134368031e-02, -3.4372911528295230e-01,
             -5.5074627964877443e-01, 1.2259893754760246e-02,
             7.5603339627713695e-01, 5.3425137581760630e-02,
             -7.0135869318746977e-02, 5.0920479466659152e-01,
             -3.0645913351026111e-02, -2.1451817320844632e-01,
             2.6248061144442764e-01, -7.8736150966211826e-01,
             -6.0664371269549947e-02, -2.2700707998515443e-01,
             8.6874474885991107e-02, 8.8295626687428774e-01,
             -3.1307933794718024e-02, -3.9578844017643328e-01 ]
   c: !!opencv-matrix
      rows: 1
      cols: 6
      dt: d
      data: [ 1.7931719475484091e+01, 2.3235998221475278e+01,
          -7.4433706741710111e+01, -4.1906660233251920e+01,
          1.7460192168617162e+01, -1.6130724940538169e+01 ]
