%YAML:1.0
---
opencv_ml_rtrees:
   format: 3
   is_classifier: 1
   var_all: 7
   var_count: 6
   ord_var_count: 6
   cat_var_count: 1
   training_params:
      use_surrogates: 0
      max_categories: 10
      regression_accuracy: 0.
      max_depth: 5
      min_sample_count: 10
      cross_validation_folds: 0
      nactive_vars: 0
   global_var_idx: 1
   var_idx: [ 0, 1, 2, 3, 4, 5 ]
   var_type: [ 0, 0, 0, 0, 0, 0, 1 ]
   cat_ofs: [ 0, 0, 0, 0, 0, 0, 0, 0, 0, 0, 0, 0 ]
   class_labels: [ 1, 2, 3, 4, 5, 6 ]
   missing_subst: [ 0., 0., 0., 0., 0., 0., 0. ]
   oob_error: 1.9811320754716982e-01
   ntrees: 100
   trees:
      -
         nodes:
            -
               depth: 0
               value: 2.
               norm_class_idx: 1
               splits:
                  - { var:4, quality:1.6948959350585938e+02,
                      le:5.4802764892578125e+01 }
            -
               depth: 1
               value: 5.
               norm_class_idx: 4
               splits:
                  - { var:3, quality:6.4676467895507812e+01,
                      le:1.9141014099121094e+01 }
            -
               depth: 2
               value: 5.
               norm_class_idx: 4
               splits:
                  - { var:1, quality:6.1125000000000000e+01,
                      le:1.5455314636230469e+01 }
            -
               depth: 3
               value: 5.
               norm_class_idx: 4
            -
               depth: 3
               value: 5.
               norm_class_idx: 4
               splits:
                  - { var:1, quality:1.4166666984558105e+01,
                      le:1.5941968917846680e+01 }
            -
               depth: 4
               value: 2.
               norm_class_idx: 1
            -
               depth: 4
               value: 5.
               norm_class_idx: 4
               splits:
                  - { var:3, quality:1.0399999618530273e+01,
                      le:1.6145475387573242e+01 }
            -
               depth: 5
               value: 5.
               norm_class_idx: 4
            -
               depth: 5
               value: 5.
               norm_class_idx: 4
            -
               depth: 2
               value: 5.
               norm_class_idx: 4
               splits:
                  - { var:0, quality:8.2857141494750977e+00,
                      le:6.8502449035644531e+01 }
            -
               depth: 3
               value: 5.
               norm_class_idx: 4
               splits:
                  - { var:1, quality:7.4000000953674316e+00,
                      le:2.1766906738281250e+01 }
            -
               depth: 4
               value: 1.
               norm_class_idx: 0
            -
               depth: 4
               value: 5.
               norm_class_idx: 4
            -
               depth: 3
               value: 2.
               norm_class_idx: 1
            -
               depth: 1
               value: 2.
               norm_class_idx: 1
               splits:
                  - { var:5, quality:1.1208837127685547e+02,
                      le:1.8888036727905273e+01 }
            -
               depth: 2
               value: 2.
               norm_class_idx: 1
               splits:
                  - { var:5, quality:4.6206821441650391e+01,
                      le:1.8216011047363281e+01 }
            -
               depth: 3
               value: 2.
               norm_class_idx: 1
               splits:
                  - { var:0, quality:4.4252872467041016e+01,
                      le:1.0321604919433594e+02 }
            -
               depth: 4
               value: 6.
               norm_class_idx: 5
            -
               depth: 4
               value: 2.
               norm_class_idx: 1
               splits:
                  - { var:0, quality:4.3787113189697266e+01,
                      le:2.0062397766113281e+02 }
            -
               depth: 5
               value: 2.
               norm_class_idx: 1
            -
               depth: 5
               value: 4.
               norm_class_idx: 3
            -
               depth: 3
               value: 1.
               norm_class_idx: 0
               splits:
                  - { var:0, quality:1.0848484992980957e+01,
                      le:1.7569702148437500e+02 }
            -
               depth: 4
               value: 6.
               norm_class_idx: 5
            -
               depth: 4
               value: 1.
               norm_class_idx: 0
               splits:
                  - { var:3, quality:11., le:1.6990808486938477e+01 }
            -
               depth: 5
               value: 2.
               norm_class_idx: 1
            -
               depth: 5
               value: 1.
               norm_class_idx: 0
            -
               depth: 2
               value: 2.
               norm_class_idx: 1
               splits:
                  - { var:4, quality:7.7284492492675781e+01,
                      le:7.8752426147460938e+01 }
            -
               depth: 3
               value: 2.
               norm_class_idx: 1
               splits:
                  - { var:4, quality:1.6280702590942383e+01,
                      le:6.7769287109375000e+01 }
            -
               depth: 4
               value: 2.
               norm_class_idx: 1
               splits:
                  - { var:2, quality:19., le:8.6590789794921875e+01 }
            -
               depth: 5
               value: 2.
               norm_class_idx: 1
            -
               depth: 5
               value: 5.
               norm_class_idx: 4
            -
               depth: 4
               value: 5.
               norm_class_idx: 4
            -
               depth: 3
               value: 2.
               norm_class_idx: 1
               splits:
                  - { var:1, quality:6.9616043090820312e+01,
                      le:2.6743656158447266e+01 }
            -
               depth: 4
               value: 2.
               norm_class_idx: 1
               splits:
                  - { var:1, quality:5.1727272033691406e+01,
                      le:2.0098917007446289e+01 }
            -
               depth: 5
               value: 2.
               norm_class_idx: 1
            -
               depth: 5
               value: 2.
               norm_class_idx: 1
            -
               depth: 4
               value: 2.
               norm_class_idx: 1
               splits:
                  - { var:1, quality:2.5765567779541016e+01,
                      le:2.8732721328735352e+01 }
            -
               depth: 5
               value: 1.
               norm_class_idx: 0
            -
               depth: 5
               value: 2.
               norm_class_idx: 1
      -
         nodes:
            -
               depth: 0
               value: 2.
               norm_class_idx: 1
               splits:
                  - { var:4, quality:1.7065058898925781e+02,
                      le:5.5026832580566406e+01 }
            -
               depth: 1
               value: 5.
               norm_class_idx: 4
               splits:
                  - { var:5, quality:6.6177780151367188e+01,
                      le:1.8924068450927734e+01 }
            -
               depth: 2
               value: 5.
               norm_class_idx: 4
               splits:
                  - { var:1, quality:6.0799999237060547e+01,
                      le:2.0755187988281250e+01 }
            -
               depth: 3
               value: 5.
               norm_class_idx: 4
               splits:
                  - { var:5, quality:5.9282333374023438e+01,
                      le:1.6443580627441406e+01 }
            -
               depth: 4
               value: 5.
               norm_class_idx: 4
               splits:
                  - { var:0, quality:5.3782051086425781e+01,
                      le:6.0439567565917969e+01 }
            -
               depth: 5
               value: 5.
               norm_class_idx: 4
            -
               depth: 5
               value: 5.
               norm_class_idx: 4
            -
               depth: 4
               value: 5.
               norm_class_idx: 4
            -
               depth: 3
               value: 2.
               norm_class_idx: 1
            -
               depth: 2
               value: 2.
               norm_class_idx: 1
               splits:
                  - { var:5, quality:1.0714285850524902e+01,
                      le:2.0086318969726562e+01 }
            -
               depth: 3
               value: 2.
               norm_class_idx: 1
            -
               depth: 3
               value: 2.
               norm_class_idx: 1
            -
               depth: 1
               value: 2.
               norm_class_idx: 1
               splits:
                  - { var:4, quality:1.1804203796386719e+02,
                      le:8.1608894348144531e+01 }
            -
               depth: 2
               value: 2.
               norm_class_idx: 1
               splits:
                  - { var:2, quality:29., le:8.2085281372070312e+01 }
            -
               depth: 3
               value: 2.
               norm_class_idx: 1
            -
               depth: 3
               value: 5.
               norm_class_idx: 4
               splits:
                  - { var:2, quality:1.0454545021057129e+01,
                      le:1.1176358032226562e+02 }
            -
               depth: 4
               value: 5.
               norm_class_idx: 4
               splits:
                  - { var:5, quality:7., le:3.3742973327636719e+01 }
            -
               depth: 5
               value: 5.
               norm_class_idx: 4
            -
               depth: 5
               value: 1.
               norm_class_idx: 0
            -
               depth: 4
               value: 6.
               norm_class_idx: 5
            -
               depth: 2
               value: 2.
               norm_class_idx: 1
               splits:
                  - { var:0, quality:1.0157949829101562e+02,
                      le:1.4311614990234375e+02 }
            -
               depth: 3
               value: 2.
               norm_class_idx: 1
               splits:
                  - { var:4, quality:4.3857143402099609e+01,
                      le:1.0908164978027344e+02 }
            -
               depth: 4
               value: 2.
               norm_class_idx: 1
               splits:
                  - { var:3, quality:23., le:3.0640819549560547e+01 }
            -
               depth: 5
               value: 2.
               norm_class_idx: 1
            -
               depth: 5
               value: 2.
               norm_class_idx: 1
            -
               depth: 4
               value: 2.
               norm_class_idx: 1
            -
               depth: 3
               value: 2.
               norm_class_idx: 1
               splits:
                  - { var:0, quality:6.1387756347656250e+01,
                      le:1.4442184448242188e+02 }
            -
               depth: 4
               value: 1.
               norm_class_idx: 0
            -
               depth: 4
               value: 2.
               norm_class_idx: 1
               splits:
                  - { var:0, quality:6.0164413452148438e+01,
                      le:2.0062397766113281e+02 }
            -
               depth: 5
               value: 2.
               norm_class_idx: 1
            -
               depth: 5
               value: 2.
               norm_class_idx: 1
      -
         nodes:
            -
               depth: 0
               value: 2.
               norm_class_idx: 1
               splits:
                  - { var:5, quality:1.6173811340332031e+02,
                      le:1.5583076477050781e+01 }
            -
               depth: 1
               value: 5.
               norm_class_idx: 4
               splits:
                  - { var:1, quality:5.2512657165527344e+01,
                      le:9.5918865203857422e+00 }
            -
               depth: 2
               value: 2.
               norm_class_idx: 1
            -
               depth: 2
               value: 5.
               norm_class_idx: 4
               splits:
                  - { var:0, quality:6.6276924133300781e+01,
                      le:1.2074658203125000e+02 }
            -
               depth: 3
               value: 5.
               norm_class_idx: 4
               splits:
                  - { var:0, quality:6.0799999237060547e+01,
                      le:5.9197853088378906e+01 }
            -
               depth: 4
               value: 5.
               norm_class_idx: 4
            -
               depth: 4
               value: 5.
               norm_class_idx: 4
            -
               depth: 3
               value: 1.
               norm_class_idx: 0
               splits:
                  - { var:2, quality:8.9090909957885742e+00,
                      le:1.4050817871093750e+02 }
            -
               depth: 4
               value: 1.
               norm_class_idx: 0
            -
               depth: 4
               value: 2.
               norm_class_idx: 1
               splits:
                  - { var:5, quality:7.8888888359069824e+00,
                      le:1.0753963470458984e+01 }
            -
               depth: 5
               value: 1.
               norm_class_idx: 0
            -
               depth: 5
               value: 2.
               norm_class_idx: 1
            -
               depth: 1
               value: 2.
               norm_class_idx: 1
               splits:
                  - { var:0, quality:1.2399006652832031e+02,
                      le:5.1100997924804688e+01 }
            -
               depth: 2
               value: 5.
               norm_class_idx: 4
               splits:
                  - { var:5, quality:1.6333333969116211e+01,
                      le:1.8837625503540039e+01 }
            -
               depth: 3
               value: 5.
               norm_class_idx: 4
            -
               depth: 3
               value: 2.
               norm_class_idx: 1
            -
               depth: 2
               value: 2.
               norm_class_idx: 1
               splits:
                  - { var:0, quality:1.1578122711181641e+02,
                      le:1.4348554992675781e+02 }
            -
               depth: 3
               value: 2.
               norm_class_idx: 1
               splits:
                  - { var:4, quality:6.1877193450927734e+01,
                      le:1.0262136840820312e+02 }
            -
               depth: 4
               value: 2.
               norm_class_idx: 1
               splits:
                  - { var:2, quality:3.7765735626220703e+01,
                      le:1.0785130310058594e+02 }
            -
               depth: 5
               value: 2.
               norm_class_idx: 1
            -
               depth: 5
               value: 2.
               norm_class_idx: 1
            -
               depth: 4
               value: 2.
               norm_class_idx: 1
            -
               depth: 3
               value: 2.
               norm_class_idx: 1
               splits:
                  - { var:5, quality:5.6938594818115234e+01,
                      le:1.8305503845214844e+01 }
            -
               depth: 4
               value: 2.
               norm_class_idx: 1
               splits:
                  - { var:2, quality:1.0357142448425293e+01,
                      le:1.9892951965332031e+02 }
            -
               depth: 5
               value: 2.
               norm_class_idx: 1
            -
               depth: 5
               value: 4.
               norm_class_idx: 3
            -
               depth: 4
               value: 2.
               norm_class_idx: 1
               splits:
                  - { var:0, quality:5.3316768646240234e+01,
                      le:1.4907260131835938e+02 }
            -
               depth: 5
               value: 1.
               norm_class_idx: 0
            -
               depth: 5
               value: 2.
               norm_class_idx: 1
      -
         nodes:
            -
               depth: 0
               value: 2.
               norm_class_idx: 1
               splits:
                  - { var:4, quality:1.7714976501464844e+02,
                      le:5.4982624053955078e+01 }
            -
               depth: 1
               value: 5.
               norm_class_idx: 4
               splits:
                  - { var:1, quality:6.1854167938232422e+01,
                      le:2.0777942657470703e+01 }
            -
               depth: 2
               value: 5.
               norm_class_idx: 4
               splits:
                  - { var:2, quality:5.9096775054931641e+01,
                      le:8.2521369934082031e+01 }
            -
               depth: 3
               value: 5.
               norm_class_idx: 4
               splits:
                  - { var:5, quality:6.0032787322998047e+01,
                      le:1.8993560791015625e+01 }
            -
               depth: 4
               value: 5.
               norm_class_idx: 4
               splits:
                  - { var:1, quality:5.9086956024169922e+01,
                      le:1.4655963897705078e+01 }
            -
               depth: 5
               value: 5.
               norm_class_idx: 4
            -
               depth: 5
               value: 5.
               norm_class_idx: 4
            -
               depth: 4
               value: 1.
               norm_class_idx: 0
            -
               depth: 3
               value: 5.
               norm_class_idx: 4
            -
               depth: 2
               value: 2.
               norm_class_idx: 1
            -
               depth: 1
               value: 2.
               norm_class_idx: 1
               splits:
                  - { var:2, quality:1.2584990692138672e+02,
                      le:1.4534088134765625e+02 }
            -
               depth: 2
               value: 2.
               norm_class_idx: 1
               splits:
                  - { var:2, quality:7.1493827819824219e+01,
                      le:8.2085281372070312e+01 }
            -
               depth: 3
               value: 2.
               norm_class_idx: 1
            -
               depth: 3
               value: 2.
               norm_class_idx: 1
               splits:
                  - { var:0, quality:6.0400001525878906e+01,
                      le:9.2311012268066406e+01 }
            -
               depth: 4
               value: 5.
               norm_class_idx: 4
               splits:
                  - { var:1, quality:11., le:2.1097274780273438e+01 }
            -
               depth: 5
               value: 6.
               norm_class_idx: 5
            -
               depth: 5
               value: 5.
               norm_class_idx: 4
            -
               depth: 4
               value: 2.
               norm_class_idx: 1
               splits:
                  - { var:0, quality:5.3781250000000000e+01,
                      le:9.5657440185546875e+01 }
            -
               depth: 5
               value: 1.
               norm_class_idx: 0
            -
               depth: 5
               value: 2.
               norm_class_idx: 1
            -
               depth: 2
               value: 2.
               norm_class_idx: 1
               splits:
                  - { var:3, quality:6.1301544189453125e+01,
                      le:1.5150380134582520e+01 }
            -
               depth: 3
               value: 2.
               norm_class_idx: 1
               splits:
                  - { var:0, quality:2.7799999237060547e+01,
                      le:2.1453065490722656e+02 }
            -
               depth: 4
               value: 2.
               norm_class_idx: 1
            -
               depth: 4
               value: 2.
               norm_class_idx: 1
            -
               depth: 3
               value: 2.
               norm_class_idx: 1
               splits:
                  - { var:0, quality:3.6540985107421875e+01,
                      le:2.0686581420898438e+02 }
            -
               depth: 4
               value: 2.
               norm_class_idx: 1
               splits:
                  - { var:5, quality:3.2262031555175781e+01,
                      le:1.8559234619140625e+01 }
            -
               depth: 5
               value: 1.
               norm_class_idx: 0
            -
               depth: 5
               value: 2.
               norm_class_idx: 1
            -
               depth: 4
               value: 2.
               norm_class_idx: 1
      -
         nodes:
            -
               depth: 0
               value: 2.
               norm_class_idx: 1
               splits:
                  - { var:2, quality:1.4714329528808594e+02,
                      le:1.0087413024902344e+02 }
            -
               depth: 1
               value: 5.
               norm_class_idx: 4
               splits:
                  - { var:4, quality:8.2375251770019531e+01,
                      le:5.4802764892578125e+01 }
            -
               depth: 2
               value: 5.
               norm_class_idx: 4
               splits:
                  - { var:2, quality:6.5970306396484375e+01,
                      le:5.9323692321777344e+01 }
            -
               depth: 3
               value: 5.
               norm_class_idx: 4
               splits:
                  - { var:1, quality:3.4010257720947266e+01,
                      le:1.5406190872192383e+01 }
            -
               depth: 4
               value: 5.
               norm_class_idx: 4
               splits:
                  - { var:4, quality:2.4666666030883789e+01,
                      le:3.3870597839355469e+01 }
            -
               depth: 5
               value: 5.
               norm_class_idx: 4
            -
               depth: 5
               value: 5.
               norm_class_idx: 4
            -
               depth: 4
               value: 2.
               norm_class_idx: 1
               splits:
                  - { var:0, quality:1.1428571701049805e+01,
                      le:2.5686359405517578e+01 }
            -
               depth: 5
               value: 5.
               norm_class_idx: 4
            -
               depth: 5
               value: 2.
               norm_class_idx: 1
            -
               depth: 3
               value: 5.
               norm_class_idx: 4
               splits:
                  - { var:2, quality:4.4222221374511719e+01,
                      le:8.2521369934082031e+01 }
            -
               depth: 4
               value: 5.
               norm_class_idx: 4
            -
               depth: 4
               value: 5.
               norm_class_idx: 4
            -
               depth: 2
               value: 2.
               norm_class_idx: 1
               splits:
                  - { var:2, quality:2.4542222976684570e+01,
                      le:8.2659957885742188e+01 }
            -
               depth: 3
               value: 2.
               norm_class_idx: 1
               splits:
                  - { var:3, quality:2.1888889312744141e+01,
                      le:2.8396629333496094e+01 }
            -
               depth: 4
               value: 2.
               norm_class_idx: 1
            -
               depth: 4
               value: 2.
               norm_class_idx: 1
            -
               depth: 3
               value: 5.
               norm_class_idx: 4
            -
               depth: 1
               value: 2.
               norm_class_idx: 1
               splits:
                  - { var:4, quality:9.6765304565429688e+01,
                      le:8.5029983520507812e+01 }
            -
               depth: 2
               value: 6.
               norm_class_idx: 5
               splits:
                  - { var:5, quality:6.4571428298950195e+00,
                      le:1.5953015327453613e+01 }
            -
               depth: 3
               value: 5.
               norm_class_idx: 4
            -
               depth: 3
               value: 6.
               norm_class_idx: 5
            -
               depth: 2
               value: 2.
               norm_class_idx: 1
               splits:
                  - { var:2, quality:9.5101112365722656e+01,
                      le:1.6627395629882812e+02 }
            -
               depth: 3
               value: 2.
               norm_class_idx: 1
               splits:
                  - { var:5, quality:5.8109970092773438e+01,
                      le:2.4447204589843750e+01 }
            -
               depth: 4
               value: 2.
               norm_class_idx: 1
               splits:
                  - { var:2, quality:2.9153846740722656e+01,
                      le:1.3852462768554688e+02 }
            -
               depth: 5
               value: 2.
               norm_class_idx: 1
            -
               depth: 5
               value: 2.
               norm_class_idx: 1
            -
               depth: 4
               value: 2.
               norm_class_idx: 1
               splits:
                  - { var:1, quality:3.1609523773193359e+01,
                      le:2.8670343399047852e+01 }
            -
               depth: 5
               value: 2.
               norm_class_idx: 1
            -
               depth: 5
               value: 2.
               norm_class_idx: 1
            -
               depth: 3
               value: 2.
               norm_class_idx: 1
               splits:
                  - { var:0, quality:40., le:1.6580178833007812e+02 }
            -
               depth: 4
               value: 2.
               norm_class_idx: 1
            -
               depth: 4
               value: 2.
               norm_class_idx: 1
               splits:
                  - { var:4, quality:3.2080001831054688e+01,
                      le:1.9700488281250000e+02 }
            -
               depth: 5
               value: 2.
               norm_class_idx: 1
            -
               depth: 5
               value: 2.
               norm_class_idx: 1
      -
         nodes:
            -
               depth: 0
               value: 2.
               norm_class_idx: 1
               splits:
                  - { var:2, quality:1.3989364624023438e+02,
                      le:1.2196250152587891e+02 }
            -
               depth: 1
               value: 5.
               norm_class_idx: 4
               splits:
                  - { var:5, quality:9.3733528137207031e+01,
                      le:1.6926578521728516e+01 }
            -
               depth: 2
               value: 5.
               norm_class_idx: 4
               splits:
                  - { var:0, quality:5.6554840087890625e+01,
                      le:7.6909675598144531e+01 }
            -
               depth: 3
               value: 5.
               norm_class_idx: 4
               splits:
                  - { var:2, quality:5.8099998474121094e+01,
                      le:3.0154125213623047e+01 }
            -
               depth: 4
               value: 2.
               norm_class_idx: 1
            -
               depth: 4
               value: 5.
               norm_class_idx: 4
               splits:
                  - { var:2, quality:5.7034481048583984e+01,
                      le:1.0091876983642578e+02 }
            -
               depth: 5
               value: 5.
               norm_class_idx: 4
            -
               depth: 5
               value: 3.
               norm_class_idx: 2
            -
               depth: 3
               value: 6.
               norm_class_idx: 5
            -
               depth: 2
               value: 2.
               norm_class_idx: 1
               splits:
                  - { var:1, quality:4.4025863647460938e+01,
                      le:3.0085906982421875e+01 }
            -
               depth: 3
               value: 2.
               norm_class_idx: 1
               splits:
                  - { var:3, quality:3.9425926208496094e+01,
                      le:1.6755569458007812e+01 }
            -
               depth: 4
               value: 5.
               norm_class_idx: 4
            -
               depth: 4
               value: 2.
               norm_class_idx: 1
               splits:
                  - { var:5, quality:3.8528301239013672e+01,
                      le:1.7259963989257812e+01 }
            -
               depth: 5
               value: 1.
               norm_class_idx: 0
            -
               depth: 5
               value: 2.
               norm_class_idx: 1
            -
               depth: 3
               value: 2.
               norm_class_idx: 1
               splits:
                  - { var:1, quality:1.3688888549804688e+01,
                      le:3.0437032699584961e+01 }
            -
               depth: 4
               value: 6.
               norm_class_idx: 5
            -
               depth: 4
               value: 2.
               norm_class_idx: 1
               splits:
                  - { var:3, quality:1.1615385055541992e+01,
                      le:2.8142700195312500e+01 }
            -
               depth: 5
               value: 5.
               norm_class_idx: 4
            -
               depth: 5
               value: 2.
               norm_class_idx: 1
            -
               depth: 1
               value: 2.
               norm_class_idx: 1
               splits:
                  - { var:0, quality:8.0390174865722656e+01,
                      le:1.7256027221679688e+02 }
            -
               depth: 2
               value: 2.
               norm_class_idx: 1
               splits:
                  - { var:2, quality:4.7107143402099609e+01,
                      le:1.2229435729980469e+02 }
            -
               depth: 3
               value: 1.
               norm_class_idx: 0
            -
               depth: 3
               value: 2.
               norm_class_idx: 1
               splits:
                  - { var:2, quality:4.6137931823730469e+01,
                      le:1.5512582397460938e+02 }
            -
               depth: 4
               value: 2.
               norm_class_idx: 1
               splits:
                  - { var:1, quality:2.1285715103149414e+01,
                      le:2.6807880401611328e+01 }
            -
               depth: 5
               value: 2.
               norm_class_idx: 1
            -
               depth: 5
               value: 1.
               norm_class_idx: 0
            -
               depth: 4
               value: 2.
               norm_class_idx: 1
            -
               depth: 2
               value: 2.
               norm_class_idx: 1
               splits:
                  - { var:1, quality:3.9272109985351562e+01,
                      le:2.0098917007446289e+01 }
            -
               depth: 3
               value: 2.
               norm_class_idx: 1
               splits:
                  - { var:3, quality:2.7517646789550781e+01,
                      le:1.5150380134582520e+01 }
            -
               depth: 4
               value: 2.
               norm_class_idx: 1
               splits:
                  - { var:5, quality:13., le:1.2311926841735840e+01 }
            -
               depth: 5
               value: 1.
               norm_class_idx: 0
            -
               depth: 5
               value: 2.
               norm_class_idx: 1
            -
               depth: 4
               value: 1.
               norm_class_idx: 0
               splits:
                  - { var:0, quality:1.8645160675048828e+01,
                      le:2.2323718261718750e+02 }
            -
               depth: 5
               value: 1.
               norm_class_idx: 0
            -
               depth: 5
               value: 2.
               norm_class_idx: 1
            -
               depth: 3
               value: 2.
               norm_class_idx: 1
               splits:
                  - { var:1, quality:2.1333333969116211e+01,
                      le:2.5737070083618164e+01 }
            -
               depth: 4
               value: 2.
               norm_class_idx: 1
            -
               depth: 4
               value: 1.
               norm_class_idx: 0
      -
         nodes:
            -
               depth: 0
               value: 2.
               norm_class_idx: 1
               splits:
                  - { var:5, quality:1.3911825561523438e+02,
                      le:1.2687919616699219e+01 }
            -
               depth: 1
               value: 5.
               norm_class_idx: 4
               splits:
                  - { var:1, quality:3.6424243927001953e+01,
                      le:8.0902748107910156e+00 }
            -
               depth: 2
               value: 2.
               norm_class_idx: 1
            -
               depth: 2
               value: 5.
               norm_class_idx: 4
               splits:
                  - { var:0, quality:3.8200000762939453e+01,
                      le:1.2944494628906250e+02 }
            -
               depth: 3
               value: 5.
               norm_class_idx: 4
               splits:
                  - { var:2, quality:3.7142856597900391e+01,
                      le:8.2477035522460938e+01 }
            -
               depth: 4
               value: 5.
               norm_class_idx: 4
            -
               depth: 4
               value: 5.
               norm_class_idx: 4
            -
               depth: 3
               value: 1.
               norm_class_idx: 0
            -
               depth: 1
               value: 2.
               norm_class_idx: 1
               splits:
                  - { var:4, quality:1.2407206726074219e+02,
                      le:8.1959304809570312e+01 }
            -
               depth: 2
               value: 5.
               norm_class_idx: 4
               splits:
                  - { var:1, quality:3.3664836883544922e+01,
                      le:1.6611850738525391e+01 }
            -
               depth: 3
               value: 5.
               norm_class_idx: 4
               splits:
                  - { var:5, quality:1.7399999618530273e+01,
                      le:1.6487375259399414e+01 }
            -
               depth: 4
               value: 5.
               norm_class_idx: 4
               splits:
                  - { var:0, quality:1.8105262756347656e+01,
                      le:3.3892208099365234e+01 }
            -
               depth: 5
               value: 2.
               norm_class_idx: 1
            -
               depth: 5
               value: 5.
               norm_class_idx: 4
            -
               depth: 4
               value: 2.
               norm_class_idx: 1
            -
               depth: 3
               value: 2.
               norm_class_idx: 1
               splits:
                  - { var:0, quality:2.1469387054443359e+01,
                      le:1.0378648376464844e+02 }
            -
               depth: 4
               value: 2.
               norm_class_idx: 1
               splits:
                  - { var:0, quality:2.0512821197509766e+01,
                      le:8.4782539367675781e+01 }
            -
               depth: 5
               value: 2.
               norm_class_idx: 1
            -
               depth: 5
               value: 1.
               norm_class_idx: 0
            -
               depth: 4
               value: 6.
               norm_class_idx: 5
            -
               depth: 2
               value: 2.
               norm_class_idx: 1
               splits:
                  - { var:2, quality:1.0200191497802734e+02,
                      le:1.2212951660156250e+02 }
            -
               depth: 3
               value: 2.
               norm_class_idx: 1
               splits:
                  - { var:2, quality:3.2153846740722656e+01,
                      le:1.1559261322021484e+02 }
            -
               depth: 4
               value: 2.
               norm_class_idx: 1
            -
               depth: 4
               value: 2.
               norm_class_idx: 1
               splits:
                  - { var:0, quality:12., le:1.2086869812011719e+02 }
            -
               depth: 5
               value: 2.
               norm_class_idx: 1
            -
               depth: 5
               value: 2.
               norm_class_idx: 1
            -
               depth: 3
               value: 2.
               norm_class_idx: 1
               splits:
                  - { var:5, quality:7.3175437927246094e+01,
                      le:4.0759475708007812e+01 }
            -
               depth: 4
               value: 2.
               norm_class_idx: 1
               splits:
                  - { var:4, quality:7.2936935424804688e+01,
                      le:1.0363461303710938e+02 }
            -
               depth: 5
               value: 5.
               norm_class_idx: 4
            -
               depth: 5
               value: 2.
               norm_class_idx: 1
            -
               depth: 4
               value: 1.
               norm_class_idx: 0
      -
         nodes:
            -
               depth: 0
               value: 2.
               norm_class_idx: 1
               splits:
                  - { var:4, quality:1.7444117736816406e+02,
                      le:5.4802764892578125e+01 }
            -
               depth: 1
               value: 5.
               norm_class_idx: 4
               splits:
                  - { var:5, quality:8.7913764953613281e+01,
                      le:1.6443580627441406e+01 }
            -
               depth: 2
               value: 5.
               norm_class_idx: 4
               splits:
                  - { var:3, quality:7.5266670227050781e+01,
                      le:1.4053070068359375e+01 }
            -
               depth: 3
               value: 5.
               norm_class_idx: 4
            -
               depth: 3
               value: 5.
               norm_class_idx: 4
               splits:
                  - { var:2, quality:30., le:3.4108177185058594e+01 }
            -
               depth: 4
               value: 2.
               norm_class_idx: 1
            -
               depth: 4
               value: 5.
               norm_class_idx: 4
            -
               depth: 2
               value: 5.
               norm_class_idx: 4
               splits:
                  - { var:4, quality:1.6097166061401367e+01,
                      le:4.2186702728271484e+01 }
            -
               depth: 3
               value: 5.
               norm_class_idx: 4
               splits:
                  - { var:1, quality:15., le:2.0777942657470703e+01 }
            -
               depth: 4
               value: 5.
               norm_class_idx: 4
            -
               depth: 4
               value: 2.
               norm_class_idx: 1
            -
               depth: 3
               value: 2.
               norm_class_idx: 1
               splits:
                  - { var:5, quality:8., le:2.0337905883789062e+01 }
            -
               depth: 4
               value: 2.
               norm_class_idx: 1
            -
               depth: 4
               value: 1.
               norm_class_idx: 0
            -
               depth: 1
               value: 2.
               norm_class_idx: 1
               splits:
                  - { var:2, quality:9.9247261047363281e+01,
                      le:1.2191929626464844e+02 }
            -
               depth: 2
               value: 2.
               norm_class_idx: 1
               splits:
                  - { var:3, quality:3.1180488586425781e+01,
                      le:1.6225418090820312e+01 }
            -
               depth: 3
               value: 3.
               norm_class_idx: 2
            -
               depth: 3
               value: 2.
               norm_class_idx: 1
               splits:
                  - { var:2, quality:2.9149999618530273e+01,
                      le:1.2156092834472656e+02 }
            -
               depth: 4
               value: 2.
               norm_class_idx: 1
               splits:
                  - { var:4, quality:2.9358396530151367e+01,
                      le:7.7218429565429688e+01 }
            -
               depth: 5
               value: 2.
               norm_class_idx: 1
            -
               depth: 5
               value: 2.
               norm_class_idx: 1
            -
               depth: 4
               value: 5.
               norm_class_idx: 4
            -
               depth: 2
               value: 2.
               norm_class_idx: 1
               splits:
                  - { var:1, quality:7.7356864929199219e+01,
                      le:2.4254222869873047e+01 }
            -
               depth: 3
               value: 2.
               norm_class_idx: 1
               splits:
                  - { var:3, quality:6.0308570861816406e+01,
                      le:1.8021518707275391e+01 }
            -
               depth: 4
               value: 2.
               norm_class_idx: 1
               splits:
                  - { var:0, quality:3.1025640487670898e+01,
                      le:1.9304318237304688e+02 }
            -
               depth: 5
               value: 2.
               norm_class_idx: 1
            -
               depth: 5
               value: 2.
               norm_class_idx: 1
            -
               depth: 4
               value: 2.
               norm_class_idx: 1
               splits:
                  - { var:4, quality:3.1470588684082031e+01,
                      le:1.6395925903320312e+02 }
            -
               depth: 5
               value: 2.
               norm_class_idx: 1
            -
               depth: 5
               value: 2.
               norm_class_idx: 1
            -
               depth: 3
               value: 2.
               norm_class_idx: 1
               splits:
                  - { var:4, quality:1.9962963104248047e+01,
                      le:1.6347915649414062e+02 }
            -
               depth: 4
               value: 2.
               norm_class_idx: 1
               splits:
                  - { var:5, quality:2.0333333969116211e+01,
                      le:2.2224555969238281e+01 }
            -
               depth: 5
               value: 1.
               norm_class_idx: 0
            -
               depth: 5
               value: 2.
               norm_class_idx: 1
            -
               depth: 4
               value: 1.
               norm_class_idx: 0
      -
         nodes:
            -
               depth: 0
               value: 2.
               norm_class_idx: 1
               splits:
                  - { var:4, quality:1.6641377258300781e+02,
                      le:5.4797332763671875e+01 }
            -
               depth: 1
               value: 5.
               norm_class_idx: 4
               splits:
                  - { var:2, quality:6.2772045135498047e+01,
                      le:6.2647872924804688e+01 }
            -
               depth: 2
               value: 5.
               norm_class_idx: 4
               splits:
                  - { var:1, quality:3.7153846740722656e+01,
                      le:1.4614607810974121e+01 }
            -
               depth: 3
               value: 5.
               norm_class_idx: 4
            -
               depth: 3
               value: 2.
               norm_class_idx: 1
               splits:
                  - { var:1, quality:1.4315151214599609e+01,
                      le:2.0755187988281250e+01 }
            -
               depth: 4
               value: 5.
               norm_class_idx: 4
               splits:
                  - { var:4, quality:9.5454549789428711e+00,
                      le:4.7364982604980469e+01 }
            -
               depth: 5
               value: 5.
               norm_class_idx: 4
            -
               depth: 5
               value: 1.
               norm_class_idx: 0
            -
               depth: 4
               value: 2.
               norm_class_idx: 1
               splits:
                  - { var:4, quality:11., le:5.4173011779785156e+01 }
            -
               depth: 5
               value: 2.
               norm_class_idx: 1
            -
               depth: 5
               value: 5.
               norm_class_idx: 4
            -
               depth: 2
               value: 5.
               norm_class_idx: 4
               splits:
                  - { var:4, quality:3.7615383148193359e+01,
                      le:4.7422428131103516e+01 }
            -
               depth: 3
               value: 5.
               norm_class_idx: 4
            -
               depth: 3
               value: 5.
               norm_class_idx: 4
               splits:
                  - { var:4, quality:13., le:4.9450347900390625e+01 }
            -
               depth: 4
               value: 6.
               norm_class_idx: 5
            -
               depth: 4
               value: 5.
               norm_class_idx: 4
            -
               depth: 1
               value: 2.
               norm_class_idx: 1
               splits:
                  - { var:4, quality:1.1600565338134766e+02,
                      le:1.0262136840820312e+02 }
            -
               depth: 2
               value: 2.
               norm_class_idx: 1
               splits:
                  - { var:4, quality:3.0464284896850586e+01,
                      le:5.8502616882324219e+01 }
            -
               depth: 3
               value: 2.
               norm_class_idx: 1
            -
               depth: 3
               value: 2.
               norm_class_idx: 1
               splits:
                  - { var:3, quality:2.1575757980346680e+01,
                      le:1.8250270843505859e+01 }
            -
               depth: 4
               value: 6.
               norm_class_idx: 5
               splits:
                  - { var:5, quality:5.7500000000000000e+00,
                      le:1.5953015327453613e+01 }
            -
               depth: 5
               value: 3.
               norm_class_idx: 2
            -
               depth: 5
               value: 6.
               norm_class_idx: 5
            -
               depth: 4
               value: 2.
               norm_class_idx: 1
               splits:
                  - { var:1, quality:2.2307691574096680e+01,
                      le:3.6819866180419922e+01 }
            -
               depth: 5
               value: 2.
               norm_class_idx: 1
            -
               depth: 5
               value: 5.
               norm_class_idx: 4
            -
               depth: 2
               value: 2.
               norm_class_idx: 1
               splits:
                  - { var:2, quality:9.1295059204101562e+01,
                      le:1.3856854248046875e+02 }
            -
               depth: 3
               value: 2.
               norm_class_idx: 1
               splits:
                  - { var:3, quality:3.0285715103149414e+01,
                      le:3.2778800964355469e+01 }
            -
               depth: 4
               value: 2.
               norm_class_idx: 1
            -
               depth: 4
               value: 2.
               norm_class_idx: 1
            -
               depth: 3
               value: 2.
               norm_class_idx: 1
               splits:
                  - { var:5, quality:6.2611763000488281e+01,
                      le:4.0759475708007812e+01 }
            -
               depth: 4
               value: 2.
               norm_class_idx: 1
               splits:
                  - { var:1, quality:6.3450000762939453e+01,
                      le:1.9193635940551758e+01 }
            -
               depth: 5
               value: 2.
               norm_class_idx: 1
            -
               depth: 5
               value: 2.
               norm_class_idx: 1
            -
               depth: 4
               value: 1.
               norm_class_idx: 0
      -
         nodes:
            -
               depth: 0
               value: 2.
               norm_class_idx: 1
               splits:
                  - { var:4, quality:1.6010586547851562e+02,
                      le:5.4749603271484375e+01 }
            -
               depth: 1
               value: 5.
               norm_class_idx: 4
               splits:
                  - { var:3, quality:6.0378787994384766e+01,
                      le:1.9780002593994141e+01 }
            -
               depth: 2
               value: 5.
               norm_class_idx: 4
               splits:
                  - { var:3, quality:5.2322223663330078e+01,
                      le:1.4399731636047363e+01 }
            -
               depth: 3
               value: 5.
               norm_class_idx: 4
               splits:
                  - { var:3, quality:3.4166667938232422e+01,
                      le:1.0839957237243652e+01 }
            -
               depth: 4
               value: 5.
               norm_class_idx: 4
               splits:
                  - { var:2, quality:12., le:8.2477035522460938e+01 }
            -
               depth: 5
               value: 5.
               norm_class_idx: 4
            -
               depth: 5
               value: 6.
               norm_class_idx: 5
            -
               depth: 4
               value: 5.
               norm_class_idx: 4
            -
               depth: 3
               value: 5.
               norm_class_idx: 4
               splits:
                  - { var:3, quality:2.4719999313354492e+01,
                      le:1.4478469848632812e+01 }
            -
               depth: 4
               value: 2.
               norm_class_idx: 1
            -
               depth: 4
               value: 5.
               norm_class_idx: 4
               splits:
                  - { var:1, quality:2.1095237731933594e+01,
                      le:2.0777942657470703e+01 }
            -
               depth: 5
               value: 5.
               norm_class_idx: 4
            -
               depth: 5
               value: 2.
               norm_class_idx: 1
            -
               depth: 2
               value: 2.
               norm_class_idx: 1
               splits:
                  - { var:5, quality:1.0500000000000000e+01,
                      le:2.0086318969726562e+01 }
            -
               depth: 3
               value: 2.
               norm_class_idx: 1
            -
               depth: 3
               value: 2.
               norm_class_idx: 1
            -
               depth: 1
               value: 2.
               norm_class_idx: 1
               splits:
                  - { var:5, quality:1.1572348022460938e+02,
                      le:1.8569763183593750e+01 }
            -
               depth: 2
               value: 2.
               norm_class_idx: 1
               splits:
                  - { var:0, quality:3.7010604858398438e+01,
                      le:1.6204525756835938e+02 }
            -
               depth: 3
               value: 2.
               norm_class_idx: 1
               splits:
                  - { var:4, quality:2.4486955642700195e+01,
                      le:8.7754287719726562e+01 }
            -
               depth: 4
               value: 2.
               norm_class_idx: 1
            -
               depth: 4
               value: 2.
               norm_class_idx: 1
               splits:
                  - { var:0, quality:2.1285715103149414e+01,
                      le:1.4453927612304688e+02 }
            -
               depth: 5
               value: 2.
               norm_class_idx: 1
            -
               depth: 5
               value: 2.
               norm_class_idx: 1
            -
               depth: 3
               value: 1.
               norm_class_idx: 0
               splits:
                  - { var:0, quality:1.8799999237060547e+01,
                      le:1.7359567260742188e+02 }
            -
               depth: 4
               value: 1.
               norm_class_idx: 0
            -
               depth: 4
               value: 2.
               norm_class_idx: 1
               splits:
                  - { var:4, quality:1.5709677696228027e+01,
                      le:1.5712619018554688e+02 }
            -
               depth: 5
               value: 2.
               norm_class_idx: 1
            -
               depth: 5
               value: 1.
               norm_class_idx: 0
            -
               depth: 2
               value: 2.
               norm_class_idx: 1
               splits:
                  - { var:0, quality:8.7728073120117188e+01,
                      le:1.4313069152832031e+02 }
            -
               depth: 3
               value: 2.
               norm_class_idx: 1
               splits:
                  - { var:1, quality:5.5430702209472656e+01,
                      le:3.2064544677734375e+01 }
            -
               depth: 4
               value: 2.
               norm_class_idx: 1
               splits:
                  - { var:4, quality:5.0200000762939453e+01,
                      le:1.0320247650146484e+02 }
            -
               depth: 5
               value: 2.
               norm_class_idx: 1
            -
               depth: 5
               value: 2.
               norm_class_idx: 1
            -
               depth: 4
               value: 2.
               norm_class_idx: 1
               splits:
                  - { var:3, quality:11., le:3.2947853088378906e+01 }
            -
               depth: 5
               value: 5.
               norm_class_idx: 4
            -
               depth: 5
               value: 2.
               norm_class_idx: 1
            -
               depth: 3
               value: 2.
               norm_class_idx: 1
               splits:
                  - { var:1, quality:3.8210918426513672e+01,
                      le:2.4254222869873047e+01 }
            -
               depth: 4
               value: 2.
               norm_class_idx: 1
               splits:
                  - { var:4, quality:2.3333333969116211e+01,
                      le:1.8707287597656250e+02 }
            -
               depth: 5
               value: 2.
               norm_class_idx: 1
            -
               depth: 5
               value: 2.
               norm_class_idx: 1
            -
               depth: 4
               value: 2.
               norm_class_idx: 1
               splits:
                  - { var:2, quality:1.8453781127929688e+01,
                      le:1.5512582397460938e+02 }
            -
               depth: 5
               value: 1.
               norm_class_idx: 0
            -
               depth: 5
               value: 2.
               norm_class_idx: 1
      -
         nodes:
            -
               depth: 0
               value: 2.
               norm_class_idx: 1
               splits:
                  - { var:2, quality:1.5782322692871094e+02,
                      le:9.2470626831054688e+01 }
            -
               depth: 1
               value: 5.
               norm_class_idx: 4
               splits:
                  - { var:0, quality:7.2039505004882812e+01,
                      le:5.8194503784179688e+01 }
            -
               depth: 2
               value: 5.
               norm_class_idx: 4
               splits:
                  - { var:1, quality:7.5282608032226562e+01,
                      le:2.0777942657470703e+01 }
            -
               depth: 3
               value: 5.
               norm_class_idx: 4
               splits:
                  - { var:3, quality:6.5235290527343750e+01,
                      le:1.4053070068359375e+01 }
            -
               depth: 4
               value: 5.
               norm_class_idx: 4
            -
               depth: 4
               value: 5.
               norm_class_idx: 4
               splits:
                  - { var:0, quality:3.0533332824707031e+01,
                      le:3.9072418212890625e+01 }
            -
               depth: 5
               value: 5.
               norm_class_idx: 4
            -
               depth: 5
               value: 5.
               norm_class_idx: 4
            -
               depth: 3
               value: 2.
               norm_class_idx: 1
               splits:
                  - { var:0, quality:12., le:5.5271034240722656e+01 }
            -
               depth: 4
               value: 2.
               norm_class_idx: 1
            -
               depth: 4
               value: 5.
               norm_class_idx: 4
            -
               depth: 2
               value: 2.
               norm_class_idx: 1
               splits:
                  - { var:3, quality:1.5642857551574707e+01,
                      le:1.1456978797912598e+01 }
            -
               depth: 3
               value: 6.
               norm_class_idx: 5
            -
               depth: 3
               value: 2.
               norm_class_idx: 1
               splits:
                  - { var:2, quality:1.7403509140014648e+01,
                      le:8.2659957885742188e+01 }
            -
               depth: 4
               value: 2.
               norm_class_idx: 1
               splits:
                  - { var:0, quality:1.4487179756164551e+01,
                      le:6.8704574584960938e+01 }
            -
               depth: 5
               value: 2.
               norm_class_idx: 1
            -
               depth: 5
               value: 2.
               norm_class_idx: 1
            -
               depth: 4
               value: 5.
               norm_class_idx: 4
            -
               depth: 1
               value: 2.
               norm_class_idx: 1
               splits:
                  - { var:2, quality:1.0083416748046875e+02,
                      le:1.2191929626464844e+02 }
            -
               depth: 2
               value: 2.
               norm_class_idx: 1
               splits:
                  - { var:1, quality:2.6039409637451172e+01,
                      le:1.5692749023437500e+01 }
            -
               depth: 3
               value: 5.
               norm_class_idx: 4
            -
               depth: 3
               value: 2.
               norm_class_idx: 1
               splits:
                  - { var:5, quality:2.3662338256835938e+01,
                      le:2.9306783676147461e+01 }
            -
               depth: 4
               value: 2.
               norm_class_idx: 1
               splits:
                  - { var:0, quality:22., le:8.0863861083984375e+01 }
            -
               depth: 5
               value: 6.
               norm_class_idx: 5
            -
               depth: 5
               value: 2.
               norm_class_idx: 1
            -
               depth: 4
               value: 2.
               norm_class_idx: 1
            -
               depth: 2
               value: 2.
               norm_class_idx: 1
               splits:
                  - { var:3, quality:8.3259292602539062e+01,
                      le:1.4014492034912109e+01 }
            -
               depth: 3
               value: 2.
               norm_class_idx: 1
               splits:
                  - { var:2, quality:1.8666666030883789e+01,
                      le:1.9902560424804688e+02 }
            -
               depth: 4
               value: 2.
               norm_class_idx: 1
            -
               depth: 4
               value: 2.
               norm_class_idx: 1
            -
               depth: 3
               value: 2.
               norm_class_idx: 1
               splits:
                  - { var:5, quality:6.8654548645019531e+01,
                      le:1.3163416862487793e+01 }
            -
               depth: 4
               value: 1.
               norm_class_idx: 0
            -
               depth: 4
               value: 2.
               norm_class_idx: 1
               splits:
                  - { var:4, quality:6.9733329772949219e+01,
                      le:1.0361630249023438e+02 }
            -
               depth: 5
               value: 1.
               norm_class_idx: 0
            -
               depth: 5
               value: 2.
               norm_class_idx: 1
      -
         nodes:
            -
               depth: 0
               value: 2.
               norm_class_idx: 1
               splits:
                  - { var:0, quality:1.5119979858398438e+02,
                      le:6.7111724853515625e+01 }
            -
               depth: 1
               value: 5.
               norm_class_idx: 4
               splits:
                  - { var:1, quality:5.5762069702148438e+01,
                      le:1.9686191558837891e+01 }
            -
               depth: 2
               value: 5.
               norm_class_idx: 4
               splits:
                  - { var:1, quality:4.7562500000000000e+01,
                      le:1.3153627395629883e+01 }
            -
               depth: 3
               value: 5.
               norm_class_idx: 4
            -
               depth: 3
               value: 5.
               norm_class_idx: 4
               splits:
                  - { var:3, quality:2.5287355422973633e+01,
                      le:1.1554237365722656e+01 }
            -
               depth: 4
               value: 6.
               norm_class_idx: 5
            -
               depth: 4
               value: 5.
               norm_class_idx: 4
               splits:
                  - { var:3, quality:2.4058822631835938e+01,
                      le:1.4659092903137207e+01 }
            -
               depth: 5
               value: 5.
               norm_class_idx: 4
            -
               depth: 5
               value: 5.
               norm_class_idx: 4
            -
               depth: 2
               value: 2.
               norm_class_idx: 1
               splits:
                  - { var:2, quality:1.2909090995788574e+01,
                      le:4.8125473022460938e+01 }
            -
               depth: 3
               value: 2.
               norm_class_idx: 1
            -
               depth: 3
               value: 1.
               norm_class_idx: 0
               splits:
                  - { var:2, quality:6.9333333969116211e+00,
                      le:5.8070644378662109e+01 }
            -
               depth: 4
               value: 1.
               norm_class_idx: 0
            -
               depth: 4
               value: 2.
               norm_class_idx: 1
            -
               depth: 1
               value: 2.
               norm_class_idx: 1
               splits:
                  - { var:1, quality:1.1342720031738281e+02,
                      le:2.6729063034057617e+01 }
            -
               depth: 2
               value: 2.
               norm_class_idx: 1
               splits:
                  - { var:5, quality:9.4088882446289062e+01,
                      le:1.8808170318603516e+01 }
            -
               depth: 3
               value: 2.
               norm_class_idx: 1
               splits:
                  - { var:5, quality:4.5427452087402344e+01,
                      le:1.8212570190429688e+01 }
            -
               depth: 4
               value: 2.
               norm_class_idx: 1
               splits:
                  - { var:0, quality:4.1744827270507812e+01,
                      le:1.0321604919433594e+02 }
            -
               depth: 5
               value: 2.
               norm_class_idx: 1
            -
               depth: 5
               value: 2.
               norm_class_idx: 1
            -
               depth: 4
               value: 1.
               norm_class_idx: 0
               splits:
                  - { var:0, quality:1.1857142448425293e+01,
                      le:1.9989712524414062e+02 }
            -
               depth: 5
               value: 2.
               norm_class_idx: 1
            -
               depth: 5
               value: 1.
               norm_class_idx: 0
            -
               depth: 3
               value: 2.
               norm_class_idx: 1
               splits:
                  - { var:0, quality:5.4426280975341797e+01,
                      le:8.7860015869140625e+01 }
            -
               depth: 4
               value: 2.
               norm_class_idx: 1
               splits:
                  - { var:2, quality:1.1500000000000000e+01,
                      le:8.2085281372070312e+01 }
            -
               depth: 5
               value: 2.
               norm_class_idx: 1
            -
               depth: 5
               value: 5.
               norm_class_idx: 4
            -
               depth: 4
               value: 2.
               norm_class_idx: 1
               splits:
                  - { var:3, quality:4.6500000000000000e+01,
                      le:1.8003543853759766e+01 }
            -
               depth: 5
               value: 2.
               norm_class_idx: 1
            -
               depth: 5
               value: 2.
               norm_class_idx: 1
            -
               depth: 2
               value: 2.
               norm_class_idx: 1
               splits:
                  - { var:2, quality:3.0562500000000000e+01,
                      le:1.2172794342041016e+02 }
            -
               depth: 3
               value: 2.
               norm_class_idx: 1
               splits:
                  - { var:3, quality:17., le:2.4063644409179688e+01 }
            -
               depth: 4
               value: 6.
               norm_class_idx: 5
            -
               depth: 4
               value: 2.
               norm_class_idx: 1
               splits:
                  - { var:2, quality:18., le:1.0754406738281250e+02 }
            -
               depth: 5
               value: 2.
               norm_class_idx: 1
            -
               depth: 5
               value: 2.
               norm_class_idx: 1
            -
               depth: 3
               value: 1.
               norm_class_idx: 0
               splits:
                  - { var:1, quality:1.9352226257324219e+01,
                      le:2.9637275695800781e+01 }
            -
               depth: 4
               value: 1.
               norm_class_idx: 0
               splits:
                  - { var:3, quality:13., le:2.9389860153198242e+01 }
            -
               depth: 5
               value: 1.
               norm_class_idx: 0
            -
               depth: 5
               value: 2.
               norm_class_idx: 1
            -
               depth: 4
               value: 2.
               norm_class_idx: 1
               splits:
                  - { var:2, quality:1.2142857551574707e+01,
                      le:1.5673599243164062e+02 }
            -
               depth: 5
               value: 1.
               norm_class_idx: 0
            -
               depth: 5
               value: 2.
               norm_class_idx: 1
      -
         nodes:
            -
               depth: 0
               value: 2.
               norm_class_idx: 1
               splits:
                  - { var:5, quality:1.3743406677246094e+02,
                      le:1.5565983772277832e+01 }
            -
               depth: 1
               value: 5.
               norm_class_idx: 4
               splits:
                  - { var:5, quality:4.8458824157714844e+01,
                      le:8.7556924819946289e+00 }
            -
               depth: 2
               value: 5.
               norm_class_idx: 4
            -
               depth: 2
               value: 5.
               norm_class_idx: 4
               splits:
                  - { var:4, quality:6.0199249267578125e+01,
                      le:8.2092041015625000e+01 }
            -
               depth: 3
               value: 5.
               norm_class_idx: 4
               splits:
                  - { var:5, quality:4.6790477752685547e+01,
                      le:1.1806854248046875e+01 }
            -
               depth: 4
               value: 5.
               norm_class_idx: 4
               splits:
                  - { var:4, quality:13., le:4.5107135772705078e+01 }
            -
               depth: 5
               value: 5.
               norm_class_idx: 4
            -
               depth: 5
               value: 3.
               norm_class_idx: 2
            -
               depth: 4
               value: 5.
               norm_class_idx: 4
               splits:
                  - { var:2, quality:4.0666667938232422e+01,
                      le:3.4108177185058594e+01 }
            -
               depth: 5
               value: 2.
               norm_class_idx: 1
            -
               depth: 5
               value: 5.
               norm_class_idx: 4
            -
               depth: 3
               value: 2.
               norm_class_idx: 1
               splits:
                  - { var:2, quality:1.7700000762939453e+01,
                      le:1.4050817871093750e+02 }
            -
               depth: 4
               value: 1.
               norm_class_idx: 0
            -
               depth: 4
               value: 2.
               norm_class_idx: 1
               splits:
                  - { var:4, quality:1.5070707321166992e+01,
                      le:1.6797058105468750e+02 }
            -
               depth: 5
               value: 2.
               norm_class_idx: 1
            -
               depth: 5
               value: 2.
               norm_class_idx: 1
            -
               depth: 1
               value: 2.
               norm_class_idx: 1
               splits:
                  - { var:0, quality:1.0045507049560547e+02,
                      le:5.7194519042968750e+01 }
            -
               depth: 2
               value: 5.
               norm_class_idx: 4
               splits:
                  - { var:0, quality:1.1422222137451172e+01,
                      le:4.8066211700439453e+01 }
            -
               depth: 3
               value: 1.
               norm_class_idx: 0
            -
               depth: 3
               value: 5.
               norm_class_idx: 4
            -
               depth: 2
               value: 2.
               norm_class_idx: 1
               splits:
                  - { var:0, quality:9.8184410095214844e+01,
                      le:2.0513764953613281e+02 }
            -
               depth: 3
               value: 2.
               norm_class_idx: 1
               splits:
                  - { var:2, quality:9.4411453247070312e+01,
                      le:1.2429000854492188e+02 }
            -
               depth: 4
               value: 2.
               norm_class_idx: 1
               splits:
                  - { var:5, quality:3.8700000762939453e+01,
                      le:1.6571792602539062e+01 }
            -
               depth: 5
               value: 5.
               norm_class_idx: 4
            -
               depth: 5
               value: 2.
               norm_class_idx: 1
            -
               depth: 4
               value: 2.
               norm_class_idx: 1
               splits:
                  - { var:1, quality:6.1210021972656250e+01,
                      le:2.6729063034057617e+01 }
            -
               depth: 5
               value: 2.
               norm_class_idx: 1
            -
               depth: 5
               value: 2.
               norm_class_idx: 1
            -
               depth: 3
               value: 1.
               norm_class_idx: 0
               splits:
                  - { var:3, quality:9.6000003814697266e+00,
                      le:2.0639331817626953e+01 }
            -
               depth: 4
               value: 1.
               norm_class_idx: 0
            -
               depth: 4
               value: 2.
               norm_class_idx: 1
      -
         nodes:
            -
               depth: 0
               value: 2.
               norm_class_idx: 1
               splits:
                  - { var:3, quality:1.3759762573242188e+02,
                      le:1.8029956817626953e+01 }
            -
               depth: 1
               value: 5.
               norm_class_idx: 4
               splits:
                  - { var:4, quality:8.1838508605957031e+01,
                      le:5.8484481811523438e+01 }
            -
               depth: 2
               value: 5.
               norm_class_idx: 4
               splits:
                  - { var:1, quality:5.6458332061767578e+01,
                      le:1.4738257408142090e+01 }
            -
               depth: 3
               value: 5.
               norm_class_idx: 4
               splits:
                  - { var:4, quality:4.3799999237060547e+01,
                      le:4.7422428131103516e+01 }
            -
               depth: 4
               value: 5.
               norm_class_idx: 4
            -
               depth: 4
               value: 5.
               norm_class_idx: 4
            -
               depth: 3
               value: 5.
               norm_class_idx: 4
               splits:
                  - { var:1, quality:1.8899999618530273e+01,
                      le:1.5084504127502441e+01 }
            -
               depth: 4
               value: 2.
               norm_class_idx: 1
            -
               depth: 4
               value: 5.
               norm_class_idx: 4
               splits:
                  - { var:2, quality:1.8111110687255859e+01,
                      le:3.0587272644042969e+01 }
            -
               depth: 5
               value: 2.
               norm_class_idx: 1
            -
               depth: 5
               value: 5.
               norm_class_idx: 4
            -
               depth: 2
               value: 2.
               norm_class_idx: 1
               splits:
                  - { var:1, quality:3.3439998626708984e+01,
                      le:1.4888013839721680e+01 }
            -
               depth: 3
               value: 2.
               norm_class_idx: 1
               splits:
                  - { var:2, quality:2.8437500000000000e+01,
                      le:1.1880436706542969e+02 }
            -
               depth: 4
               value: 3.
               norm_class_idx: 2
            -
               depth: 4
               value: 2.
               norm_class_idx: 1
               splits:
                  - { var:5, quality:2.7555555343627930e+01,
                      le:1.1891382217407227e+01 }
            -
               depth: 5
               value: 2.
               norm_class_idx: 1
            -
               depth: 5
               value: 2.
               norm_class_idx: 1
            -
               depth: 3
               value: 1.
               norm_class_idx: 0
               splits:
                  - { var:3, quality:9.7500000000000000e+00,
                      le:1.4185613632202148e+01 }
            -
               depth: 4
               value: 5.
               norm_class_idx: 4
            -
               depth: 4
               value: 1.
               norm_class_idx: 0
               splits:
                  - { var:3, quality:10., le:1.7923490524291992e+01 }
            -
               depth: 5
               value: 1.
               norm_class_idx: 0
            -
               depth: 5
               value: 4.
               norm_class_idx: 3
            -
               depth: 1
               value: 2.
               norm_class_idx: 1
               splits:
                  - { var:0, quality:9.4011940002441406e+01,
                      le:6.6622772216796875e+01 }
            -
               depth: 2
               value: 2.
               norm_class_idx: 1
               splits:
                  - { var:4, quality:7.5000000000000000e+00,
                      le:3.8438976287841797e+01 }
            -
               depth: 3
               value: 5.
               norm_class_idx: 4
            -
               depth: 3
               value: 2.
               norm_class_idx: 1
               splits:
                  - { var:2, quality:9., le:4.8125473022460938e+01 }
            -
               depth: 4
               value: 2.
               norm_class_idx: 1
            -
               depth: 4
               value: 1.
               norm_class_idx: 0
            -
               depth: 2
               value: 2.
               norm_class_idx: 1
               splits:
                  - { var:2, quality:8.9616668701171875e+01,
                      le:7.6211288452148438e+01 }
            -
               depth: 3
               value: 2.
               norm_class_idx: 1
            -
               depth: 3
               value: 2.
               norm_class_idx: 1
               splits:
                  - { var:4, quality:7.9333335876464844e+01,
                      le:7.7936203002929688e+01 }
            -
               depth: 4
               value: 1.
               norm_class_idx: 0
               splits:
                  - { var:0, quality:8.5714282989501953e+00,
                      le:8.4839866638183594e+01 }
            -
               depth: 5
               value: 2.
               norm_class_idx: 1
            -
               depth: 5
               value: 1.
               norm_class_idx: 0
            -
               depth: 4
               value: 2.
               norm_class_idx: 1
               splits:
                  - { var:5, quality:7.5246910095214844e+01,
                      le:3.0641138076782227e+01 }
            -
               depth: 5
               value: 2.
               norm_class_idx: 1
            -
               depth: 5
               value: 2.
               norm_class_idx: 1
      -
         nodes:
            -
               depth: 0
               value: 2.
               norm_class_idx: 1
               splits:
                  - { var:2, quality:1.4553369140625000e+02,
                      le:9.2070205688476562e+01 }
            -
               depth: 1
               value: 5.
               norm_class_idx: 4
               splits:
                  - { var:4, quality:7.2233764648437500e+01,
                      le:5.4802764892578125e+01 }
            -
               depth: 2
               value: 5.
               norm_class_idx: 4
               splits:
                  - { var:4, quality:5.2601539611816406e+01,
                      le:4.2992607116699219e+01 }
            -
               depth: 3
               value: 5.
               norm_class_idx: 4
               splits:
                  - { var:3, quality:4.8442554473876953e+01,
                      le:2.0440608978271484e+01 }
            -
               depth: 4
               value: 5.
               norm_class_idx: 4
               splits:
                  - { var:3, quality:4.5153846740722656e+01,
                      le:1.4390960693359375e+01 }
            -
               depth: 5
               value: 5.
               norm_class_idx: 4
            -
               depth: 5
               value: 5.
               norm_class_idx: 4
            -
               depth: 4
               value: 2.
               norm_class_idx: 1
            -
               depth: 3
               value: 5.
               norm_class_idx: 4
               splits:
                  - { var:5, quality:1.9461538314819336e+01,
                      le:1.6113330841064453e+01 }
            -
               depth: 4
               value: 5.
               norm_class_idx: 4
            -
               depth: 4
               value: 2.
               norm_class_idx: 1
               splits:
                  - { var:0, quality:9.7272729873657227e+00,
                      le:4.8268478393554688e+01 }
            -
               depth: 5
               value: 1.
               norm_class_idx: 0
            -
               depth: 5
               value: 2.
               norm_class_idx: 1
            -
               depth: 2
               value: 2.
               norm_class_idx: 1
               splits:
                  - { var:5, quality:2.6638889312744141e+01,
                      le:2.7839084625244141e+01 }
            -
               depth: 3
               value: 2.
               norm_class_idx: 1
               splits:
                  - { var:2, quality:2.2666666030883789e+01,
                      le:8.5192443847656250e+01 }
            -
               depth: 4
               value: 2.
               norm_class_idx: 1
            -
               depth: 4
               value: 2.
               norm_class_idx: 1
            -
               depth: 3
               value: 2.
               norm_class_idx: 1
            -
               depth: 1
               value: 2.
               norm_class_idx: 1
               splits:
                  - { var:2, quality:9.9474029541015625e+01,
                      le:1.8218533325195312e+02 }
            -
               depth: 2
               value: 2.
               norm_class_idx: 1
               splits:
                  - { var:4, quality:8.6990890502929688e+01,
                      le:9.4666778564453125e+01 }
            -
               depth: 3
               value: 2.
               norm_class_idx: 1
               splits:
                  - { var:0, quality:1.1867647171020508e+01,
                      le:9.7020004272460938e+01 }
            -
               depth: 4
               value: 1.
               norm_class_idx: 0
            -
               depth: 4
               value: 2.
               norm_class_idx: 1
               splits:
                  - { var:0, quality:1.2076923370361328e+01,
                      le:1.3055186462402344e+02 }
            -
               depth: 5
               value: 2.
               norm_class_idx: 1
            -
               depth: 5
               value: 1.
               norm_class_idx: 0
            -
               depth: 3
               value: 2.
               norm_class_idx: 1
               splits:
                  - { var:5, quality:7.9480003356933594e+01,
                      le:1.1445812225341797e+01 }
            -
               depth: 4
               value: 1.
               norm_class_idx: 0
            -
               depth: 4
               value: 2.
               norm_class_idx: 1
               splits:
                  - { var:5, quality:7.8994796752929688e+01,
                      le:2.0126255035400391e+01 }
            -
               depth: 5
               value: 2.
               norm_class_idx: 1
            -
               depth: 5
               value: 2.
               norm_class_idx: 1
            -
               depth: 2
               value: 2.
               norm_class_idx: 1
               splits:
                  - { var:3, quality:2.1166666030883789e+01,
                      le:1.4917512893676758e+01 }
            -
               depth: 3
               value: 2.
               norm_class_idx: 1
            -
               depth: 3
               value: 2.
               norm_class_idx: 1
               splits:
                  - { var:5, quality:1.9250000000000000e+01,
                      le:1.9171596527099609e+01 }
            -
               depth: 4
               value: 1.
               norm_class_idx: 0
               splits:
                  - { var:5, quality:1.2881118774414062e+01,
                      le:1.7924583435058594e+01 }
            -
               depth: 5
               value: 4.
               norm_class_idx: 3
            -
               depth: 5
               value: 1.
               norm_class_idx: 0
            -
               depth: 4
               value: 2.
               norm_class_idx: 1
               splits:
                  - { var:2, quality:12., le:1.8306430053710938e+02 }
            -
               depth: 5
               value: 1.
               norm_class_idx: 0
            -
               depth: 5
               value: 2.
               norm_class_idx: 1
      -
         nodes:
            -
               depth: 0
               value: 2.
               norm_class_idx: 1
               splits:
                  - { var:4, quality:1.6064550781250000e+02,
                      le:5.4797332763671875e+01 }
            -
               depth: 1
               value: 5.
               norm_class_idx: 4
               splits:
                  - { var:1, quality:5.4646629333496094e+01,
                      le:1.9686191558837891e+01 }
            -
               depth: 2
               value: 5.
               norm_class_idx: 4
               splits:
                  - { var:5, quality:4.8441810607910156e+01,
                      le:1.3862585067749023e+01 }
            -
               depth: 3
               value: 5.
               norm_class_idx: 4
               splits:
                  - { var:0, quality:3.0666666030883789e+01,
                      le:5.8204216003417969e+01 }
            -
               depth: 4
               value: 5.
               norm_class_idx: 4
            -
               depth: 4
               value: 5.
               norm_class_idx: 4
            -
               depth: 3
               value: 5.
               norm_class_idx: 4
               splits:
                  - { var:1, quality:1.9899999618530273e+01,
                      le:1.7189331054687500e+01 }
            -
               depth: 4
               value: 5.
               norm_class_idx: 4
               splits:
                  - { var:5, quality:1.3882352828979492e+01,
                      le:1.6443580627441406e+01 }
            -
               depth: 5
               value: 5.
               norm_class_idx: 4
            -
               depth: 5
               value: 2.
               norm_class_idx: 1
            -
               depth: 4
               value: 5.
               norm_class_idx: 4
            -
               depth: 2
               value: 2.
               norm_class_idx: 1
               splits:
                  - { var:3, quality:1.0984615325927734e+01,
                      le:1.9382530212402344e+01 }
            -
               depth: 3
               value: 5.
               norm_class_idx: 4
            -
               depth: 3
               value: 2.
               norm_class_idx: 1
               splits:
                  - { var:3, quality:9.6666669845581055e+00,
                      le:2.5411540985107422e+01 }
            -
               depth: 4
               value: 2.
               norm_class_idx: 1
               splits:
                  - { var:0, quality:9.3333330154418945e+00,
                      le:4.9352020263671875e+01 }
            -
               depth: 5
               value: 2.
               norm_class_idx: 1
            -
               depth: 5
               value: 2.
               norm_class_idx: 1
            -
               depth: 4
               value: 5.
               norm_class_idx: 4
            -
               depth: 1
               value: 2.
               norm_class_idx: 1
               splits:
                  - { var:4, quality:1.1666850280761719e+02,
                      le:8.2125358581542969e+01 }
            -
               depth: 2
               value: 2.
               norm_class_idx: 1
               splits:
                  - { var:5, quality:1.7822368621826172e+01,
                      le:2.1419597625732422e+01 }
            -
               depth: 3
               value: 5.
               norm_class_idx: 4
               splits:
                  - { var:5, quality:6.1428570747375488e+00,
                      le:1.3701841354370117e+01 }
            -
               depth: 4
               value: 3.
               norm_class_idx: 2
            -
               depth: 4
               value: 5.
               norm_class_idx: 4
               splits:
                  - { var:4, quality:6.5000000000000000e+00,
                      le:7.9656990051269531e+01 }
            -
               depth: 5
               value: 5.
               norm_class_idx: 4
            -
               depth: 5
               value: 6.
               norm_class_idx: 5
            -
               depth: 3
               value: 2.
               norm_class_idx: 1
               splits:
                  - { var:0, quality:1.5571428298950195e+01,
                      le:8.1008316040039062e+01 }
            -
               depth: 4
               value: 2.
               norm_class_idx: 1
            -
               depth: 4
               value: 2.
               norm_class_idx: 1
            -
               depth: 2
               value: 2.
               norm_class_idx: 1
               splits:
                  - { var:2, quality:1.0687529754638672e+02,
                      le:1.8256561279296875e+02 }
            -
               depth: 3
               value: 2.
               norm_class_idx: 1
               splits:
                  - { var:4, quality:8.8407752990722656e+01,
                      le:1.1563555908203125e+02 }
            -
               depth: 4
               value: 2.
               norm_class_idx: 1
               splits:
                  - { var:3, quality:3.4162162780761719e+01,
                      le:3.2651943206787109e+01 }
            -
               depth: 5
               value: 2.
               norm_class_idx: 1
            -
               depth: 5
               value: 1.
               norm_class_idx: 0
            -
               depth: 4
               value: 2.
               norm_class_idx: 1
               splits:
                  - { var:4, quality:5.7625000000000000e+01,
                      le:1.1696961975097656e+02 }
            -
               depth: 5
               value: 1.
               norm_class_idx: 0
            -
               depth: 5
               value: 2.
               norm_class_idx: 1
            -
               depth: 3
               value: 2.
               norm_class_idx: 1
               splits:
                  - { var:5, quality:22., le:1.4997627258300781e+01 }
            -
               depth: 4
               value: 2.
               norm_class_idx: 1
            -
               depth: 4
               value: 2.
               norm_class_idx: 1
               splits:
                  - { var:1, quality:1.6477272033691406e+01,
                      le:1.8963405609130859e+01 }
            -
               depth: 5
               value: 1.
               norm_class_idx: 0
            -
               depth: 5
               value: 2.
               norm_class_idx: 1
      -
         nodes:
            -
               depth: 0
               value: 2.
               norm_class_idx: 1
               splits:
                  - { var:0, quality:1.5812614440917969e+02,
                      le:5.9520835876464844e+01 }
            -
               depth: 1
               value: 5.
               norm_class_idx: 4
               splits:
                  - { var:3, quality:6.8193595886230469e+01,
                      le:1.7082752227783203e+01 }
            -
               depth: 2
               value: 5.
               norm_class_idx: 4
               splits:
                  - { var:2, quality:5.9033332824707031e+01,
                      le:9.4912872314453125e+01 }
            -
               depth: 3
               value: 5.
               norm_class_idx: 4
               splits:
                  - { var:2, quality:59., le:3.0107803344726562e+01 }
            -
               depth: 4
               value: 2.
               norm_class_idx: 1
            -
               depth: 4
               value: 5.
               norm_class_idx: 4
            -
               depth: 3
               value: 3.
               norm_class_idx: 2
            -
               depth: 2
               value: 2.
               norm_class_idx: 1
               splits:
                  - { var:1, quality:1.4882352828979492e+01,
                      le:2.0777942657470703e+01 }
            -
               depth: 3
               value: 5.
               norm_class_idx: 4
            -
               depth: 3
               value: 2.
               norm_class_idx: 1
               splits:
                  - { var:5, quality:1.3571428298950195e+01,
                      le:1.9847068786621094e+01 }
            -
               depth: 4
               value: 2.
               norm_class_idx: 1
            -
               depth: 4
               value: 5.
               norm_class_idx: 4
            -
               depth: 1
               value: 2.
               norm_class_idx: 1
               splits:
                  - { var:0, quality:1.0806560516357422e+02,
                      le:1.1535331726074219e+02 }
            -
               depth: 2
               value: 2.
               norm_class_idx: 1
               splits:
                  - { var:2, quality:2.6375385284423828e+01,
                      le:7.3300949096679688e+01 }
            -
               depth: 3
               value: 2.
               norm_class_idx: 1
               splits:
                  - { var:0, quality:1.0600000381469727e+01,
                      le:6.7178359985351562e+01 }
            -
               depth: 4
               value: 2.
               norm_class_idx: 1
            -
               depth: 4
               value: 2.
               norm_class_idx: 1
            -
               depth: 3
               value: 2.
               norm_class_idx: 1
               splits:
                  - { var:3, quality:2.1571725845336914e+01,
                      le:1.5854028701782227e+01 }
            -
               depth: 4
               value: 5.
               norm_class_idx: 4
               splits:
                  - { var:1, quality:8.6363639831542969e+00,
                      le:1.0121950149536133e+01 }
            -
               depth: 5
               value: 3.
               norm_class_idx: 2
            -
               depth: 5
               value: 5.
               norm_class_idx: 4
            -
               depth: 4
               value: 2.
               norm_class_idx: 1
               splits:
                  - { var:0, quality:2.0437500000000000e+01,
                      le:1.1492889404296875e+02 }
            -
               depth: 5
               value: 2.
               norm_class_idx: 1
            -
               depth: 5
               value: 5.
               norm_class_idx: 4
            -
               depth: 2
               value: 2.
               norm_class_idx: 1
               splits:
                  - { var:0, quality:8.7328285217285156e+01,
                      le:1.4311614990234375e+02 }
            -
               depth: 3
               value: 2.
               norm_class_idx: 1
               splits:
                  - { var:4, quality:3.0399999618530273e+01,
                      le:8.7844337463378906e+01 }
            -
               depth: 4
               value: 6.
               norm_class_idx: 5
            -
               depth: 4
               value: 2.
               norm_class_idx: 1
               splits:
                  - { var:1, quality:2.9928571701049805e+01,
                      le:3.1580627441406250e+01 }
            -
               depth: 5
               value: 2.
               norm_class_idx: 1
            -
               depth: 5
               value: 2.
               norm_class_idx: 1
            -
               depth: 3
               value: 2.
               norm_class_idx: 1
               splits:
                  - { var:4, quality:6.0904491424560547e+01,
                      le:1.6113061523437500e+02 }
            -
               depth: 4
               value: 2.
               norm_class_idx: 1
               splits:
                  - { var:0, quality:2.7893617630004883e+01,
                      le:1.4490867614746094e+02 }
            -
               depth: 5
               value: 1.
               norm_class_idx: 0
            -
               depth: 5
               value: 2.
               norm_class_idx: 1
            -
               depth: 4
               value: 2.
               norm_class_idx: 1
               splits:
                  - { var:3, quality:3.5900001525878906e+01,
                      le:1.4917512893676758e+01 }
            -
               depth: 5
               value: 2.
               norm_class_idx: 1
            -
               depth: 5
               value: 2.
               norm_class_idx: 1
      -
         nodes:
            -
               depth: 0
               value: 2.
               norm_class_idx: 1
               splits:
                  - { var:2, quality:1.4720248413085938e+02,
                      le:9.2470626831054688e+01 }
            -
               depth: 1
               value: 5.
               norm_class_idx: 4
               splits:
                  - { var:5, quality:8.8245712280273438e+01,
                      le:1.6617858886718750e+01 }
            -
               depth: 2
               value: 5.
               norm_class_idx: 4
               splits:
                  - { var:5, quality:5.8285713195800781e+01,
                      le:1.4515790939331055e+01 }
            -
               depth: 3
               value: 5.
               norm_class_idx: 4
            -
               depth: 3
               value: 5.
               norm_class_idx: 4
               splits:
                  - { var:2, quality:14., le:3.4108177185058594e+01 }
            -
               depth: 4
               value: 2.
               norm_class_idx: 1
            -
               depth: 4
               value: 5.
               norm_class_idx: 4
            -
               depth: 2
               value: 2.
               norm_class_idx: 1
               splits:
                  - { var:4, quality:3.6536766052246094e+01,
                      le:4.2000961303710938e+01 }
            -
               depth: 3
               value: 5.
               norm_class_idx: 4
               splits:
                  - { var:2, quality:1.4250000000000000e+01,
                      le:4.4992584228515625e+01 }
            -
               depth: 4
               value: 2.
               norm_class_idx: 1
            -
               depth: 4
               value: 5.
               norm_class_idx: 4
            -
               depth: 3
               value: 2.
               norm_class_idx: 1
